{"learner":{"attributes":{"scikit_learn":"{\"_estimator_type\": \"classifier\"}"},"feature_names":["Latitude","Longitude","_24d","_as","_do","aldrin","alk_phen","alk_tot","b","barium","bhc","bod","bod3_27","ca","carbon_14","cd","chlf_a","cl","cn","co3","cocci","cod","cr","cu","ddt","dieldrin","do_sat_","ec_fld","ec_gen","endos","f","fcol_mpn","fe","har_ca","har_mg","har_total","hco3","hg","k","mg","na","na_","nh3_n","ni","no2_n","no2_no3","no3_n","o_po4_p","org_n","p_tot","pah","pb","ph_fld","ph_gen","rsc","sar","secchi","sio2","sio3","so4","ss","tcol_mpn","tds","temp","toc","ts","turb","zn","_401","ag","al","colour_cod","d_o","d_o_","mn","odour_code","oxygen_18","pcb","ph","phenols","radon","se","strontium","tritium","uranium","no2__n","caco3","mgcaco3"],"feature_types":["float","float","float","float","float","float","float","float","float","float","float","float","float","float","float","float","float","float","float","float","float","float","float","float","float","float","float","float","float","float","float","float","float","float","float","float","float","float","float","float","float","float","float","float","float","float","float","float","float","float","float","float","float","float","float","float","float","float","float","float","float","float","float","float","float","float","float","float","float","float","float","float","float","float","float","float","float","float","float","float","float","float","float","float","float","float","float","float"],"gradient_booster":{"model":{"gbtree_model_param":{"num_parallel_tree":"1","num_trees":"300"},"iteration_indptr":[0,1,2,3,4,5,6,7,8,9,10,11,12,13,14,15,16,17,18,19,20,21,22,23,24,25,26,27,28,29,30,31,32,33,34,35,36,37,38,39,40,41,42,43,44,45,46,47,48,49,50,51,52,53,54,55,56,57,58,59,60,61,62,63,64,65,66,67,68,69,70,71,72,73,74,75,76,77,78,79,80,81,82,83,84,85,86,87,88,89,90,91,92,93,94,95,96,97,98,99,100,101,102,103,104,105,106,107,108,109,110,111,112,113,114,115,116,117,118,119,120,121,122,123,124,125,126,127,128,129,130,131,132,133,134,135,136,137,138,139,140,141,142,143,144,145,146,147,148,149,150,151,152,153,154,155,156,157,158,159,160,161,162,163,164,165,166,167,168,169,170,171,172,173,174,175,176,177,178,179,180,181,182,183,184,185,186,187,188,189,190,191,192,193,194,195,196,197,198,199,200,201,202,203,204,205,206,207,208,209,210,211,212,213,214,215,216,217,218,219,220,221,222,223,224,225,226,227,228,229,230,231,232,233,234,235,236,237,238,239,240,241,242,243,244,245,246,247,248,249,250,251,252,253,254,255,256,257,258,259,260,261,262,263,264,265,266,267,268,269,270,271,272,273,274,275,276,277,278,279,280,281,282,283,284,285,286,287,288,289,290,291,292,293,294,295,296,297,298,299,300],"tree_info":[0,0,0,0,0,0,0,0,0,0,0,0,0,0,0,0,0,0,0,0,0,0,0,0,0,0,0,0,0,0,0,0,0,0,0,0,0,0,0,0,0,0,0,0,0,0,0,0,0,0,0,0,0,0,0,0,0,0,0,0,0,0,0,0,0,0,0,0,0,0,0,0,0,0,0,0,0,0,0,0,0,0,0,0,0,0,0,0,0,0,0,0,0,0,0,0,0,0,0,0,0,0,0,0,0,0,0,0,0,0,0,0,0,0,0,0,0,0,0,0,0,0,0,0,0,0,0,0,0,0,0,0,0,0,0,0,0,0,0,0,0,0,0,0,0,0,0,0,0,0,0,0,0,0,0,0,0,0,0,0,0,0,0,0,0,0,0,0,0,0,0,0,0,0,0,0,0,0,0,0,0,0,0,0,0,0,0,0,0,0,0,0,0,0,0,0,0,0,0,0,0,0,0,0,0,0,0,0,0,0,0,0,0,0,0,0,0,0,0,0,0,0,0,0,0,0,0,0,0,0,0,0,0,0,0,0,0,0,0,0,0,0,0,0,0,0,0,0,0,0,0,0,0,0,0,0,0,0,0,0,0,0,0,0,0,0,0,0,0,0,0,0,0,0,0,0,0,0,0,0,0,0,0,0,0,0,0,0,0,0,0,0,0,0,0,0,0,0,0,0],"trees":[{"base_weights":[1.3157895E-2,-7.464831E-1,1.6751801E0,-1.3178978E0,1.75E0,1.4922894E0,1.8895348E0,-1.8880546E0,-6.507937E-1,4.1269842E-1,1.8867257E0,8.435374E-1,1.8264015E0,9.93266E-2,1.2244898E0,-1.9443672E0,9.677419E-1,1.3113554E0,-1.1886983E0,7.1428573E-1,-6.363636E-2,1.2727273E0,9.9168405E-2,1.6666667E-1,1.6923077E0,1.8892989E0,-4.6666667E-2,-5.714286E-1,1.4545455E0,-9.748954E-2,-0E0,-0E0,7.894737E-2,-1.2E0,1.5396825E0,-4.7252747E-1,-1.5942948E0,-1.25E-1,7.857143E-2,1.4216868E0,-3.3333335E-2,4.827586E-1,-7.777778E-2,1.7460318E0,-0E0,1.9287128E0,1.2195122E0,-5E-2,-0E0,1.5555556E0,9.09091E-3,-4.5454547E-2,5.555556E-2,-8.095238E-2,2.5E-2,9.555556E-2,2.8947368E-2,-7.51938E-2,4.6025105E-3,-3.5555556E-2,-8.642202E-2,2.173913E-2,-5.3846158E-2,7.721519E-2,-2.5E-2,4.2857144E-2,-3.5135135E-2,9.145299E-2,2.3076924E-2,9.680639E-2,2.5E-2,-3.3333335E-2,7.777778E-2,-0E0,8.1818186E-2],"categories":[],"categories_nodes":[],"categories_segments":[],"categories_sizes":[],"default_left":[0,0,0,0,0,0,0,0,0,0,0,0,0,0,0,0,0,0,0,0,0,0,0,0,0,0,0,0,0,0,0,0,0,0,0,0,0,0,0,0,0,0,0,0,0,0,0,0,0,0,0,0,0,0,0,0,0,0,0,0,0,0,0,0,0,0,0,0,0,0,0,0,0,0,0],"id":0,"left_children":[1,3,5,7,9,11,13,15,17,19,21,23,25,-1,27,29,31,33,35,37,-1,39,-1,41,43,45,-1,47,49,-1,-1,51,-1,53,55,57,59,61,-1,63,-1,65,-1,67,-1,69,71,-1,-1,73,-1,-1,-1,-1,-1,-1,-1,-1,-1,-1,-1,-1,-1,-1,-1,-1,-1,-1,-1,-1,-1,-1,-1,-1,-1],"loss_changes":[1.5364994E3,1.1938131E3,1.2146118E1,2.5750708E2,2.7744904E1,4.4140656E1,8.662781E0,6.0781006E1,3.3402527E2,8.914863E0,5.857239E0,4.1944263E1,2.5760834E1,0E0,1.0953617E1,3.7911377E0,4.58404E0,4.098291E1,7.121219E1,1.02678585E1,0E0,7.3033943E0,0E0,2.3614943E1,2.9548264E0,1.2249451E0,0E0,8.571428E-1,2.545452E0,0E0,0E0,5.0505047E0,0E0,5.2619047E0,2.1374771E1,5.3125587E1,1.7460327E1,4.7311873E0,0E0,5.6615067E0,0E0,1.669072E1,0E0,2.5152588E0,0E0,3.6941528E-1,7.5338764E0,0E0,0E0,2.545456E0,0E0,0E0,0E0,0E0,0E0,0E0,0E0,0E0,0E0,0E0,0E0,0E0,0E0,0E0,0E0,0E0,0E0,0E0,0E0,0E0,0E0,0E0,0E0,0E0,0E0],"parents":[2147483647,0,0,1,1,2,2,3,3,4,4,5,5,6,6,7,7,8,8,9,9,10,10,11,11,12,12,14,14,15,15,16,16,17,17,18,18,19,19,21,21,23,23,24,24,25,25,27,27,28,28,31,31,33,33,34,34,35,35,36,36,37,37,39,39,41,41,43,43,45,45,46,46,49,49],"right_children":[2,4,6,8,10,12,14,16,18,20,22,24,26,-1,28,30,32,34,36,38,-1,40,-1,42,44,46,-1,48,50,-1,-1,52,-1,54,56,58,60,62,-1,64,-1,66,-1,68,-1,70,72,-1,-1,74,-1,-1,-1,-1,-1,-1,-1,-1,-1,-1,-1,-1,-1,-1,-1,-1,-1,-1,-1,-1,-1,-1,-1,-1,-1],"split_conditions":[1.1015813E0,8.272157E0,4.117768E2,1E-1,8.307954E0,4.346406E2,2.396961E0,4.546101E1,6.9E0,2.4E1,8.413848E0,2.4033725E0,3.6E2,9.93266E-2,2.4033725E0,3.6358014E-1,4.117768E2,5.9864907E0,6.8469185E-1,4.462012E-3,-6.363636E-2,8.995565E0,9.9168405E-2,2.7498245E1,3.4115634E2,5.1379895E-1,-4.6666667E-2,7.307065E0,2.747207E1,-9.748954E-2,-0E0,3.5487347E1,7.894737E-2,1.65E2,6.7E0,1.158691E0,5.6E1,1.6031E0,7.857143E-2,1.05417E2,-3.3333335E-2,9.53086E1,-7.777778E-2,3.0088177E2,-0E0,1.3569823E-1,2.7317383E1,-5E-2,-0E0,9.4776665E1,9.09091E-3,-4.5454547E-2,5.555556E-2,-8.095238E-2,2.5E-2,9.555556E-2,2.8947368E-2,-7.51938E-2,4.6025105E-3,-3.5555556E-2,-8.642202E-2,2.173913E-2,-5.3846158E-2,7.721519E-2,-2.5E-2,4.2857144E-2,-3.5135135E-2,9.145299E-2,2.3076924E-2,9.680639E-2,2.5E-2,-3.3333335E-2,7.777778E-2,-0E0,8.1818186E-2],"split_indices":[12,53,31,17,53,61,12,31,53,59,53,12,31,0,12,34,31,53,38,45,0,4,0,0,61,42,0,53,0,0,0,28,0,27,53,63,62,38,0,35,0,1,0,31,0,32,0,0,0,1,0,0,0,0,0,0,0,0,0,0,0,0,0,0,0,0,0,0,0,0,0,0,0,0,0],"split_type":[0,0,0,0,0,0,0,0,0,0,0,0,0,0,0,0,0,0,0,0,0,0,0,0,0,0,0,0,0,0,0,0,0,0,0,0,0,0,0,0,0,0,0,0,0,0,0,0,0,0,0,0,0,0,0,0,0,0,0,0,0,0,0,0,0,0,0,0,0,0,0,0,0,0,0],"sum_hessian":[1.215E3,8.3425E2,3.8075E2,6.7925E2,1.55E2,2.0975E2,1.71E2,3.6525E2,3.14E2,1.475E1,1.4025E2,7.25E1,1.3725E2,1.475E2,2.35E1,3.585E2,6.75E0,6.725E1,2.4675E2,1.3E1,1.75E0,2.1E1,1.1925E2,4.1E1,3.15E1,1.345E2,2.75E0,2.5E0,2.1E1,3.575E2,1E0,3E0,3.75E0,5.25E0,6.2E1,9E1,1.5675E2,7E0,6E0,1.975E1,1.25E0,3.525E1,5.75E0,3.05E1,1E0,1.2525E2,9.25E0,1E0,1.5E0,1.925E1,1.75E0,1.75E0,1.25E0,4.25E0,1E0,4.4E1,1.8E1,3.125E1,5.875E1,2.15E1,1.3525E2,4.75E0,2.25E0,1.875E1,1E0,2.7E1,8.25E0,2.825E1,2.25E0,1.2425E2,1E0,1.25E0,8E0,1E0,1.825E1],"tree_param":{"num_deleted":"0","num_feature":"88","num_nodes":"75","size_leaf_vector":"1"}},{"base_weights":[1.5261198E-2,-1.0219774E0,1.1463898E0,-1.276795E0,1.7266058E0,1.5169251E0,-6.939006E-2,-1.4783881E0,1.5626864E0,8.5691285E-1,9.320323E-2,3.4187946E-1,1.5926332E0,-4.3745264E-1,9.103491E-2,-1.8433454E0,-7.7871865E-1,1.0192351E0,9.172257E-2,6.988316E-2,5.0206076E-2,9.012351E-2,-8.0741537E-1,1.6053795E0,-4.5769136E-2,1.400472E0,-1.0641544E0,-1.8512425E0,1.095056E-2,1.433599E0,-1.1916821E0,1.9948816E-1,1.4299554E0,-3.5477083E-2,4.3039706E-2,-1.5531691E0,7.632782E-2,1.6217158E0,-4.854673E-1,4.6425727E-1,1.59372E0,1.0452291E0,-1.3930999E0,-9.5027246E-2,-8.049075E-2,-1.1459403E-2,8.135132E-2,2.523607E-2,-6.4404756E-2,6.5018415E-2,-3.123728E-2,8.4067166E-2,2.4996293E-4,-8.797145E-2,1.0709034E-2,8.382593E-2,4.5470256E-2,-6.1183263E-2,3.165231E-2,4.4421434E-2,-1.6325245E-2,8.692982E-2,1.689162E-2,-6.40396E-2,8.1224546E-2,-3.1713527E-2,-8.474933E-2],"categories":[],"categories_nodes":[],"categories_segments":[],"categories_sizes":[],"default_left":[0,0,0,0,0,0,0,0,0,0,0,0,0,0,0,0,0,0,0,0,0,0,0,0,0,0,0,0,0,0,0,0,0,0,0,0,0,0,0,0,0,0,0,0,0,0,0,0,0,0,0,0,0,0,0,0,0,0,0,0,0,0,0,0,0,0,0],"id":1,"left_children":[1,3,5,7,9,11,13,15,17,19,-1,21,23,25,-1,27,29,31,-1,-1,33,-1,35,37,-1,39,41,43,-1,45,47,49,51,-1,-1,53,-1,55,57,59,61,63,65,-1,-1,-1,-1,-1,-1,-1,-1,-1,-1,-1,-1,-1,-1,-1,-1,-1,-1,-1,-1,-1,-1,-1,-1],"loss_changes":[1.4235963E3,4.4552618E2,2.6157507E2,3.342212E2,4.873474E0,3.903235E1,9.577674E1,1.3694226E2,3.8789368E0,3.9598489E0,0E0,4.8796783E1,1.4821899E1,1.3404678E2,0E0,6.1938477E0,1.7301099E2,4.841152E0,0E0,0E0,3.5327687E0,0E0,3.1044422E1,1.4994263E1,0E0,4.6325684E0,6.139856E1,1.1561279E0,0E0,1.0005154E1,2.6582367E1,6.4785175E0,3.567175E0,0E0,0E0,5.108547E0,0E0,1.4594971E1,4.0725875E0,2.4675376E0,3.8163872E0,1.8553164E1,1.6143204E1,0E0,0E0,0E0,0E0,0E0,0E0,0E0,0E0,0E0,0E0,0E0,0E0,0E0,0E0,0E0,0E0,0E0,0E0,0E0,0E0,0E0,0E0,0E0,0E0],"parents":[2147483647,0,0,1,1,2,2,3,3,4,4,5,5,6,6,7,7,8,8,9,9,11,11,12,12,13,13,15,15,16,16,17,17,20,20,22,22,23,23,25,25,26,26,27,27,29,29,30,30,31,31,32,32,35,35,37,37,38,38,39,39,40,40,41,41,42,42],"right_children":[2,4,6,8,10,12,14,16,18,20,-1,22,24,26,-1,28,30,32,-1,-1,34,-1,36,38,-1,40,42,44,-1,46,48,50,52,-1,-1,54,-1,56,58,60,62,64,66,-1,-1,-1,-1,-1,-1,-1,-1,-1,-1,-1,-1,-1,-1,-1,-1,-1,-1,-1,-1,-1,-1,-1,-1],"split_conditions":[9.491485E1,8.307954E0,9.533139E1,7.4763644E-1,8.413848E0,-2.1E-1,8.413848E0,6.9412476E-1,9.4776665E1,9.6644005E1,9.320323E-2,2.7348532E1,5.9486395E-1,2.18E1,9.103491E-2,3.6358014E-1,6.798407E0,4.117768E2,9.172257E-2,6.988316E-2,9.488175E1,9.012351E-2,2.7353935E1,8.55E0,-4.5769136E-2,1.4052557E0,6.6922493E0,9E1,1.095056E-2,5.9864907E0,2.39E1,7.3942986E0,2.3166628E0,-3.5477083E-2,4.3039706E-2,1.4735524E2,7.632782E-2,2.7510418E1,2.14E2,7.6E0,7.203281E2,5.9864907E0,1.9110197E0,-9.5027246E-2,-8.049075E-2,-1.1459403E-2,8.135132E-2,2.523607E-2,-6.4404756E-2,6.5018415E-2,-3.123728E-2,8.4067166E-2,2.4996293E-4,-8.797145E-2,1.0709034E-2,8.382593E-2,4.5470256E-2,-6.1183263E-2,3.165231E-2,4.4421434E-2,-1.6325245E-2,8.692982E-2,1.689162E-2,-6.40396E-2,8.1224546E-2,-3.1713527E-2,-8.474933E-2],"split_indices":[1,53,1,12,53,54,53,17,1,27,0,0,8,36,0,34,53,31,0,0,1,0,0,40,0,12,53,28,0,53,35,53,12,0,0,62,0,0,28,4,31,53,40,0,0,0,0,0,0,0,0,0,0,0,0,0,0,0,0,0,0,0,0,0,0,0,0],"split_type":[0,0,0,0,0,0,0,0,0,0,0,0,0,0,0,0,0,0,0,0,0,0,0,0,0,0,0,0,0,0,0,0,0,0,0,0,0,0,0,0,0,0,0,0,0,0,0,0,0,0,0,0,0,0,0,0,0,0,0,0,0,0,0,0,0,0,0],"sum_hessian":[1.2113795E3,6.319664E2,5.794131E2,5.788385E2,5.3127895E1,4.438826E2,1.355305E2,5.409148E2,3.7923664E1,8.238352E0,4.4889545E1,2.7202103E1,4.166805E2,1.1408328E2,2.1447227E1,3.5441327E2,1.8650153E2,1.4226067E1,2.3697598E1,4.4936323E0,3.744719E0,1.1728507E1,1.5473596E1,4.1493164E2,1.7488521E0,2.8694988E1,8.538829E1,3.5316333E2,1.2499477E0,2.8948399E1,1.5755313E2,5.2444644E0,8.981603E0,1.9973247E0,1.7473942E0,1.1980204E1,3.4933925E0,4.1193744E2,2.9942029E0,5.491771E0,2.3203217E1,1.1225643E1,7.416265E1,2.8756665E2,6.559667E1,2.9973109E0,2.5951088E1,8.245053E0,1.4930807E2,1.9980793E0,3.246385E0,7.4817586E0,1.4998438E0,1.073218E1,1.2480243E0,3.812516E2,3.0685856E1,1.7471237E0,1.2470791E0,3.4940333E0,1.997738E0,2.0458778E1,2.744437E0,1.996727E0,9.228916E0,2.1989744E1,5.2172905E1],"tree_param":{"num_deleted":"0","num_feature":"88","num_nodes":"67","size_leaf_vector":"1"}},{"base_weights":[1.7525017E-2,-1.1103642E0,9.7586703E-1,8.071275E-1,-1.4573643E0,1.4814101E0,2.8459406E-1,-1.5443955E-1,9.068242E-2,-1.5668507E0,1.5051363E0,1.50136E0,-6.487783E-2,-4.93455E-1,1.6583408E0,5.637317E-1,-1.3804181E0,-1.7462174E0,-5.2379346E-1,8.2757875E-2,5.0237947E-3,1.2978615E0,1.7376834E0,1.298271E0,-1.011425E0,6.5135187E-1,1.7465838E0,-6.523071E-2,9.116722E-1,-8.733293E-2,5.787289E-2,-1.770993E0,-8.019018E-3,1.4197649E0,-1.1882905E0,7.371359E-1,1.7235564E0,8.766412E-2,-1.0770742E-2,-7.535667E-1,1.4968202E0,-1.2959433E0,3.7826797E-1,9.760001E-1,-2.6444634E-2,1.2931128E0,9.0375386E-2,-4.750356E-3,6.618691E-2,-8.878767E-2,-8.5837E-3,5.5714794E-2,-5.6288596E-2,8.49181E-2,2.90546E-2,-3.4122925E-2,-8.367734E-2,4.9685895E-2,-7.8316204E-2,8.759963E-2,5.361991E-2,-6.286969E-2,1.2643309E-2,8.317674E-2,-2.9574215E-2,7.9225145E-2,-6.965574E-2,5.946458E-2,-6.1015237E-2,-3.194502E-2,6.8510346E-2,-1.7411515E-2,7.920586E-2],"categories":[],"categories_nodes":[],"categories_segments":[],"categories_sizes":[],"default_left":[0,0,0,0,0,0,0,0,0,0,0,0,0,0,0,0,0,0,0,0,0,0,0,0,0,0,0,0,0,0,0,0,0,0,0,0,0,0,0,0,0,0,0,0,0,0,0,0,0,0,0,0,0,0,0,0,0,0,0,0,0,0,0,0,0,0,0,0,0,0,0,0,0],"id":2,"left_children":[1,3,5,7,9,11,13,15,-1,17,19,21,-1,23,25,27,29,31,33,-1,-1,35,37,39,41,43,45,-1,47,-1,-1,49,51,53,55,57,59,-1,-1,61,63,65,67,69,-1,71,-1,-1,-1,-1,-1,-1,-1,-1,-1,-1,-1,-1,-1,-1,-1,-1,-1,-1,-1,-1,-1,-1,-1,-1,-1,-1,-1],"loss_changes":[1.3132942E3,3.725421E2,2.2913E2,8.367814E1,1.5576599E2,2.2968872E1,2.9870438E2,4.0390526E1,0E0,8.4510254E1,3.4933434E0,1.5871399E1,0E0,1.6715544E2,7.8373413E0,2.0094105E1,1.7738567E1,1.6745483E1,9.0057625E1,0E0,0E0,4.8015015E1,5.601013E0,1.763237E1,5.55231E1,4.2453294E0,2.1185303E-1,0E0,1.0539396E1,0E0,0E0,2.616333E0,9.37553E0,3.1930046E0,1.1507774E1,5.5253178E1,2.8063965E-1,0E0,0E0,2.4676743E0,1.3960564E1,3.460771E1,3.3120987E1,5.958292E0,0E0,7.449707E0,0E0,0E0,0E0,0E0,0E0,0E0,0E0,0E0,0E0,0E0,0E0,0E0,0E0,0E0,0E0,0E0,0E0,0E0,0E0,0E0,0E0,0E0,0E0,0E0,0E0,0E0,0E0],"parents":[2147483647,0,0,1,1,2,2,3,3,4,4,5,5,6,6,7,7,9,9,10,10,11,11,13,13,14,14,15,15,16,16,17,17,18,18,21,21,22,22,23,23,24,24,25,25,26,26,28,28,31,31,32,32,33,33,34,34,35,35,36,36,39,39,40,40,41,41,42,42,43,43,45,45],"right_children":[2,4,6,8,10,12,14,16,-1,18,20,22,-1,24,26,28,30,32,34,-1,-1,36,38,40,42,44,46,-1,48,-1,-1,50,52,54,56,58,60,-1,-1,62,64,66,68,70,-1,72,-1,-1,-1,-1,-1,-1,-1,-1,-1,-1,-1,-1,-1,-1,-1,-1,-1,-1,-1,-1,-1,-1,-1,-1,-1,-1,-1],"split_conditions":[9.488175E1,9.488167E1,1.634923E1,9.478528E1,8.307954E0,2.99E0,8.272157E0,1.9598265E0,9.068242E-2,7.245465E0,6.383238E1,6.216971E2,-6.487783E-2,6.9E0,8.307954E0,-2.8E-1,8.413848E0,8.731559E1,6.816003E0,8.2757875E-2,5.0237947E-3,4.117768E2,5.9486395E-1,5.9864907E0,6.0371566E-1,1.37E2,8.413848E0,-6.523071E-2,7.4139256E0,-8.733293E-2,5.787289E-2,7.751077E0,6.7331436E1,6.629388E0,2.7450087E-2,2.7510418E1,9.536639E1,8.766412E-2,-1.0770742E-2,3.7665477E-1,1.1926069E1,9.490972E1,7.3071335E1,7.4704033E-1,-2.6444634E-2,4.3E1,9.0375386E-2,-4.750356E-3,6.618691E-2,-8.878767E-2,-8.5837E-3,5.5714794E-2,-5.6288596E-2,8.49181E-2,2.90546E-2,-3.4122925E-2,-8.367734E-2,4.9685895E-2,-7.8316204E-2,8.759963E-2,5.361991E-2,-6.286969E-2,1.2643309E-2,8.317674E-2,-2.9574215E-2,7.9225145E-2,-6.965574E-2,5.946458E-2,-6.1015237E-2,-3.194502E-2,6.8510346E-2,-1.7411515E-2,7.920586E-2],"split_indices":[1,1,35,1,53,40,53,17,0,17,56,61,0,53,53,54,53,33,53,0,0,31,8,53,19,27,53,0,4,0,0,26,62,53,70,0,1,0,0,4,59,1,36,19,0,36,0,0,0,0,0,0,0,0,0,0,0,0,0,0,0,0,0,0,0,0,0,0,0,0,0,0,0],"split_type":[0,0,0,0,0,0,0,0,0,0,0,0,0,0,0,0,0,0,0,0,0,0,0,0,0,0,0,0,0,0,0,0,0,0,0,0,0,0,0,0,0,0,0,0,0,0,0,0,0,0,0,0,0,0,0,0,0,0,0,0,0,0,0,0,0,0,0,0,0,0,0,0,0],"sum_hessian":[1.212994E3,5.571344E2,6.558597E2,8.516948E1,4.719649E2,3.7815997E2,2.776997E2,4.3990383E1,4.1179096E1,4.5559827E2,1.6366621E1,3.75921E2,2.238962E0,1.7769778E2,1.0000191E2,2.808092E1,1.5909464E1,3.8817297E2,6.7425316E1,1.4626177E1,1.7404444E0,2.0547652E2,1.7044449E2,3.9512486E1,1.381853E2,8.732457E0,9.1269455E1,3.9768395E0,2.4104078E1,1.4175555E1,1.7339088E0,3.8269925E2,5.473716E0,1.6889463E1,5.053585E1,8.9853294E1,1.1562322E2,1.6919547E2,1.2490265E0,3.239512E0,3.6272972E1,1.1475786E2,2.3427437E1,6.984338E0,1.7481192E0,1.3442042E1,7.782741E1,7.224363E0,1.6879717E1,3.8145352E2,1.2457117E0,2.7328274E0,2.7408884E0,1.1908533E1,4.9809294E0,2.5921555E1,2.4614296E1,8.135929E1,8.4939995E0,1.0916537E2,6.457857E0,1.9926307E0,1.2468812E0,3.3779663E1,2.4933105E0,3.245503E0,1.1151236E2,1.5712069E1,7.715369E0,1.248604E0,5.7357335E0,1.9947076E0,1.1447335E1],"tree_param":{"num_deleted":"0","num_feature":"88","num_nodes":"73","size_leaf_vector":"1"}},{"base_weights":[-1.3514647E-3,-9.5335E-1,1.0382127E0,-1.3924234E0,3.7679878E-1,1.3806407E0,-9.3947254E-2,-1.7111704E0,-4.6067718E-1,1.0640713E0,-1.1270701E0,1.5655744E-1,1.4594233E0,-4.6980727E-1,1.2714052E0,-8.589865E-2,-2.2336958E-2,-2.2253087E-1,-1.5181156E0,-2.401782E-2,8.939366E-2,1.4057292E-1,-1.4349283E0,8.24563E-2,-7.5073737E-1,1.5246012E0,6.8027264E-1,-6.268201E-2,-1.0352217E0,1.3440609E0,3.5988414E-3,9.868551E-2,-1.1090375E0,-8.302092E-2,-7.940783E-3,9.534629E-1,-9.300899E-1,-9.3854946E-1,6.818098E-1,-1.6250128E0,-4.1805536E-1,-1.4796971E0,7.357881E-2,1.5416476E0,-7.821595E-1,8.7482914E-2,7.9419196E-2,1.6074684E0,-7.402099E-1,-1.5987835E0,-3.6587417E-2,1.0341057E0,8.28376E-2,-3.936157E-2,2.1017784E-2,-6.683453E-2,5.8936752E-2,5.7216763E-2,1.28756035E-2,-9.84819E-4,-7.424034E-2,-1.1586445E-2,-5.8643516E-2,6.448766E-2,-5.5029232E-2,-8.466037E-2,-4.4631477E-2,-7.328749E-2,6.3842736E-2,-8.247741E-2,-8.731542E-3,7.7530764E-2,-3.2848727E-2,-5.0681688E-2,-1.0018143E-2,-6.6571265E-2,2.4219317E-2,8.808645E-3,8.501958E-2,-5.221296E-2,2.5104797E-2,-8.273847E-2,-2.3251334E-2,-6.963035E-2,2.9702408E-2,-2.4824957E-3,5.7249356E-2],"categories":[],"categories_nodes":[],"categories_segments":[],"categories_sizes":[],"default_left":[0,0,0,0,0,0,0,0,0,0,0,0,0,0,0,0,0,0,0,0,0,0,0,0,0,0,0,0,0,0,0,0,0,0,0,0,0,0,0,0,0,0,0,0,0,0,0,0,0,0,0,0,0,0,0,0,0,0,0,0,0,0,0,0,0,0,0,0,0,0,0,0,0,0,0,0,0,0,0,0,0,0,0,0,0,0,0],"id":3,"left_children":[1,3,5,7,9,11,13,15,17,19,21,23,25,27,29,-1,-1,31,33,35,-1,37,39,-1,41,43,45,47,49,51,-1,53,55,-1,-1,57,59,61,63,65,67,69,-1,71,73,75,-1,77,79,81,83,85,-1,-1,-1,-1,-1,-1,-1,-1,-1,-1,-1,-1,-1,-1,-1,-1,-1,-1,-1,-1,-1,-1,-1,-1,-1,-1,-1,-1,-1,-1,-1,-1,-1,-1,-1],"loss_changes":[1.1943569E3,3.6843384E2,2.2377838E2,1.3993323E2,1.6359622E2,4.2491394E1,6.982561E1,2.2659912E0,3.0421236E1,8.5378334E1,1.9624146E1,3.9029537E1,2.0092651E1,2.4453285E1,2.4644203E0,0E0,0E0,2.8831669E1,4.045994E0,4.0096447E1,0E0,6.851831E0,7.0780106E0,0E0,3.140762E1,1.6272095E1,1.8123434E1,7.246492E1,2.499878E1,9.670105E-1,0E0,2.1691357E1,1.5590046E1,0E0,0E0,2.599886E0,1.1828928E1,3.862903E-1,9.722402E0,1.6004181E-1,1.5486083E1,2.8342152E0,0E0,8.524475E0,2.647574E-1,1.2800553E1,0E0,2.160038E0,1.7708559E1,1.0355759E0,1.5437695E1,2.0454826E0,0E0,0E0,0E0,0E0,0E0,0E0,0E0,0E0,0E0,0E0,0E0,0E0,0E0,0E0,0E0,0E0,0E0,0E0,0E0,0E0,0E0,0E0,0E0,0E0,0E0,0E0,0E0,0E0,0E0,0E0,0E0,0E0,0E0,0E0,0E0],"parents":[2147483647,0,0,1,1,2,2,3,3,4,4,5,5,6,6,7,7,8,8,9,9,10,10,11,11,12,12,13,13,14,14,17,17,18,18,19,19,21,21,22,22,24,24,25,25,26,26,27,27,28,28,29,29,31,31,32,32,35,35,36,36,37,37,38,38,39,39,40,40,41,41,43,43,44,44,45,45,47,47,48,48,49,49,50,50,51,51],"right_children":[2,4,6,8,10,12,14,16,18,20,22,24,26,28,30,-1,-1,32,34,36,-1,38,40,-1,42,44,46,48,50,52,-1,54,56,-1,-1,58,60,62,64,66,68,70,-1,72,74,76,-1,78,80,82,84,86,-1,-1,-1,-1,-1,-1,-1,-1,-1,-1,-1,-1,-1,-1,-1,-1,-1,-1,-1,-1,-1,-1,-1,-1,-1,-1,-1,-1,-1,-1,-1,-1,-1,-1,-1],"split_conditions":[9.491485E1,2.731405E1,9.533139E1,2.104124E0,2.748768E1,-2.1E-1,1.1015813E0,7.962539E-2,2.3E2,9.478528E1,2.7E1,2.7348532E1,2.7510418E1,2.7293888E1,9.541164E1,-8.589865E-2,-2.2336958E-2,7.2E0,2.588384E-1,1.5518986E1,8.939366E-2,6.04E1,1.5213474E2,8.24563E-2,2.7353935E1,8.55E0,7.7E1,9.537E1,4.389E1,2.7148731E1,3.5988414E-3,1.10210045E2,1.7174239E2,-8.302092E-2,-7.940783E-3,2.1940403E0,1.98E1,3.6235E1,1.05417E2,1.5443693E-1,9.701237E0,1.4735524E2,7.357881E-2,6E-1,1.7109386E1,1.5003009E0,7.9419196E-2,1.87E1,2.213773E0,1.4957898E2,1.91E2,1.4052557E0,8.28376E-2,-3.936157E-2,2.1017784E-2,-6.683453E-2,5.8936752E-2,5.7216763E-2,1.28756035E-2,-9.84819E-4,-7.424034E-2,-1.1586445E-2,-5.8643516E-2,6.448766E-2,-5.5029232E-2,-8.466037E-2,-4.4631477E-2,-7.328749E-2,6.3842736E-2,-8.247741E-2,-8.731542E-3,7.7530764E-2,-3.2848727E-2,-5.0681688E-2,-1.0018143E-2,-6.6571265E-2,2.4219317E-2,8.808645E-3,8.501958E-2,-5.221296E-2,2.5104797E-2,-8.273847E-2,-2.3251334E-2,-6.963035E-2,2.9702408E-2,-2.4824957E-3,5.7249356E-2],"split_indices":[1,0,1,35,0,54,12,66,62,1,62,0,0,0,1,0,0,59,54,66,0,35,66,0,0,40,28,1,33,0,0,28,62,0,0,12,33,7,35,30,39,62,0,8,59,12,0,36,38,62,28,12,0,0,0,0,0,0,0,0,0,0,0,0,0,0,0,0,0,0,0,0,0,0,0,0,0,0,0,0,0,0,0,0,0,0,0],"split_type":[0,0,0,0,0,0,0,0,0,0,0,0,0,0,0,0,0,0,0,0,0,0,0,0,0,0,0,0,0,0,0,0,0,0,0,0,0,0,0,0,0,0,0,0,0,0,0,0,0,0,0,0,0,0,0,0,0,0,0,0,0,0,0,0,0,0,0,0,0,0,0,0,0,0,0,0,0,0,0,0,0,0,0,0,0,0,0],"sum_hessian":[1.204831E3,6.2894604E2,5.758851E2,4.7282336E2,1.5612268E2,4.4198486E2,1.3390024E2,3.5167877E2,1.2114459E2,1.0735401E2,4.876866E1,2.6906874E1,4.1507797E2,1.05510704E2,2.8389526E1,3.4944012E2,2.2386472E0,9.9864494E1,2.1280096E1,4.3271263E1,6.408275E1,9.63574E0,3.9132923E1,9.863326E0,1.7043547E1,3.8215314E2,3.2924847E1,6.1987568E1,4.3523136E1,2.6654346E1,1.7351805E0,7.395599E1,2.5908499E1,1.9062906E1,2.2171888E0,2.0790228E1,2.2481035E1,2.9733562E0,6.662384E0,3.2465992E1,6.6669297E0,1.3085444E1,3.9581027E0,3.796791E2,2.474039E0,2.0584316E1,1.2340531E1,1.7493183E1,4.4494385E1,2.7438005E1,1.608513E1,1.554875E1,1.1105597E1,1.9314447E1,5.464155E1,2.3941807E1,1.9666914E0,1.5809908E1,4.9803205E0,8.903782E0,1.3577253E1,1.235488E0,1.7378681E0,5.1740127E0,1.4883715E0,2.8500317E1,3.9656758E0,4.203671E0,2.463259E0,1.1344968E1,1.7404763E0,3.784303E2,1.2487986E0,1.2388867E0,1.2351522E0,3.9846995E0,1.6599617E1,1.24301E0,1.6250174E1,3.587383E1,8.620554E0,2.5708933E1,1.7290721E0,4.722453E0,1.1362678E1,1.4944274E0,1.4054322E1],"tree_param":{"num_deleted":"0","num_feature":"88","num_nodes":"87","size_leaf_vector":"1"}},{"base_weights":[2.476995E-3,-6.377127E-1,1.4201012E0,-1.1158042E0,1.4936632E0,1.4332925E0,-4.3668523E-2,-1.5946356E0,-5.54184E-1,8.5797554E-1,8.525777E-2,1.4855796E0,8.147385E-1,-1.6430471E0,7.9689735E-1,1.2255538E0,-1.0368212E0,1.0060099E0,-7.2279495E-1,1.3590415E0,1.6262858E0,-6.1259925E-2,1.0957996E0,-1.4403238E0,-8.4512524E-2,1.1554633E0,-2.2080394E-2,-8.3403677E-1,1.3944197E0,-1.3388532E0,2.7763875E-2,1.148415E0,-4.9362306E-2,-6.2164076E-2,1.1823679E-2,9.3537974E-1,1.5828555E0,8.481156E-2,1.1758819E0,1.316188E0,-5.4925716E-1,-8.038083E-2,9.394949E-3,4.6740817E-3,6.957463E-2,-6.9415726E-2,3.201924E-2,8.4311E-2,3.2359067E-2,-1.226838E-2,-7.436904E-2,4.902812E-2,-5.6494094E-2,6.692141E-2,-2.703921E-2,5.4362416E-2,-5.817873E-2,8.229263E-2,-5.9682637E-2,-5.132267E-2,6.958011E-2,-2.066372E-2,7.220008E-2,6.081216E-3,-5.617393E-2],"categories":[],"categories_nodes":[],"categories_segments":[],"categories_sizes":[],"default_left":[0,0,0,0,0,0,0,0,0,0,0,0,0,0,0,0,0,0,0,0,0,0,0,0,0,0,0,0,0,0,0,0,0,0,0,0,0,0,0,0,0,0,0,0,0,0,0,0,0,0,0,0,0,0,0,0,0,0,0,0,0,0,0,0,0],"id":4,"left_children":[1,3,5,7,9,11,-1,13,15,17,-1,19,21,23,25,27,29,31,33,35,37,-1,39,41,-1,43,-1,45,47,49,51,53,-1,-1,-1,55,57,-1,59,61,63,-1,-1,-1,-1,-1,-1,-1,-1,-1,-1,-1,-1,-1,-1,-1,-1,-1,-1,-1,-1,-1,-1,-1,-1],"loss_changes":[1.083559E3,8.3979443E2,1.2489258E1,1.7993463E2,1.885434E1,1.0746338E1,0E0,4.3268433E1,2.6838712E2,1.0026478E1,0E0,3.8374634E0,1.9133074E1,9.678345E-1,4.002582E0,2.4395325E1,7.887033E1,1.1566547E1,2.2835178E0,1.6053802E1,2.9118652E0,0E0,1.080172E1,2.0435608E1,0E0,1.467865E0,0E0,5.537156E0,1.2451759E1,3.0657501E1,6.1955128E1,1.1882675E1,0E0,0E0,0E0,2.242035E1,2.2875916E1,0E0,1.2923012E1,6.080929E0,1.6736816E0,0E0,0E0,0E0,0E0,0E0,0E0,0E0,0E0,0E0,0E0,0E0,0E0,0E0,0E0,0E0,0E0,0E0,0E0,0E0,0E0,0E0,0E0,0E0,0E0],"parents":[2147483647,0,0,1,1,2,2,3,3,4,4,5,5,7,7,8,8,9,9,11,11,12,12,13,13,14,14,15,15,16,16,17,17,18,18,19,19,20,20,22,22,23,23,25,25,27,27,28,28,29,29,30,30,31,31,35,35,36,36,38,38,39,39,40,40],"right_children":[2,4,6,8,10,12,-1,14,16,18,-1,20,22,24,26,28,30,32,34,36,38,-1,40,42,-1,44,-1,46,48,50,52,54,-1,-1,-1,56,58,-1,60,62,64,-1,-1,-1,-1,-1,-1,-1,-1,-1,-1,-1,-1,-1,-1,-1,-1,-1,-1,-1,-1,-1,-1,-1,-1],"split_conditions":[1.1015813E0,8.272157E0,6E-1,1E-1,8.413848E0,2.7510418E1,-4.3668523E-2,4.546101E1,6.9E0,9E0,8.525777E-2,4.117768E2,4.546101E1,6.6223435E0,7.403178E0,5.9864907E0,5.146469E-1,2.62E1,1.4843595E1,4.346406E2,2.396961E0,-6.1259925E-2,2.386424E0,7.44526E-1,-8.4512524E-2,2.7320726E1,-2.2080394E-2,1.17529575E-2,6.6922493E0,4.7E1,2.94E0,2.76E1,-4.9362306E-2,-6.2164076E-2,1.1823679E-2,8.5E0,3.6E2,8.481156E-2,2.4033725E0,1.3127952E0,7.2174516E0,-8.038083E-2,9.394949E-3,4.6740817E-3,6.957463E-2,-6.9415726E-2,3.201924E-2,8.4311E-2,3.2359067E-2,-1.226838E-2,-7.436904E-2,4.902812E-2,-5.6494094E-2,6.692141E-2,-2.703921E-2,5.4362416E-2,-5.817873E-2,8.229263E-2,-5.9682637E-2,-5.132267E-2,6.958011E-2,-2.066372E-2,7.220008E-2,6.081216E-3,-5.617393E-2],"split_indices":[12,53,8,17,53,0,0,31,53,4,0,31,31,52,53,53,19,63,66,61,12,0,12,52,0,0,0,44,53,62,40,13,0,0,0,4,31,0,12,12,4,0,0,0,0,0,0,0,0,0,0,0,0,0,0,0,0,0,0,0,0,0,0,0,0],"split_type":[0,0,0,0,0,0,0,0,0,0,0,0,0,0,0,0,0,0,0,0,0,0,0,0,0,0,0,0,0,0,0,0,0,0,0,0,0,0,0,0,0,0,0,0,0,0,0,0,0,0,0,0,0,0,0,0,0,0,0,0,0,0,0,0,0],"sum_hessian":[1.1919429E3,8.215062E2,3.7043665E2,6.7138385E2,1.501224E2,3.686911E2,1.7455386E0,3.6141006E2,3.0997375E2,3.873932E1,1.1138309E2,3.386619E2,3.0029213E1,3.54546E2,6.864066E0,6.579897E1,2.4417479E2,3.57546E1,2.984717E0,1.8391997E2,1.5474191E2,3.2296035E0,2.6799608E1,7.2914474E1,2.816315E2,5.3749785E0,1.4890873E0,4.687566E0,6.111141E1,1.9000977E2,5.4165035E1,3.3766087E1,1.9885147E0,1.7429452E0,1.2417716E0,6.536626E1,1.1855371E2,1.3154727E2,2.319464E1,2.3809729E1,2.9898794E0,6.6132324E1,6.7821507E0,1.2312402E0,4.1437387E0,3.4492815E0,1.2382842E0,4.3045376E1,1.806603E1,2.3039686E1,1.6697008E2,2.979515E1,2.4369884E1,3.0538548E1,3.22754E0,6.1405315E1,3.960941E0,1.1632168E2,2.2320373E0,1.7339636E0,2.1460674E1,1.4848334E0,2.2324896E1,1.7423861E0,1.2474933E0],"tree_param":{"num_deleted":"0","num_feature":"88","num_nodes":"65","size_leaf_vector":"1"}},{"base_weights":[-1.880474E-2,-9.204212E-1,9.5522934E-1,-1.1416825E0,1.5035746E0,1.2848637E0,-1.7291677E-1,-1.3091568E0,1.2740419E0,7.885267E-1,8.1629634E-2,1.3763468E0,4.892133E-1,-5.0969297E-1,7.9497196E-2,-1.5864704E0,-7.334234E-1,6.914945E-1,7.8956865E-2,-3.664888E-2,1.0939451E0,1.4350449E0,6.526745E-1,-6.600214E-1,1.4556555E0,-1.0143492E0,1.1217768E0,-1.5957134E0,1.8346798E-2,1.1888967E0,-1.0832177E0,6.4925745E-2,1.351674E-1,7.058981E-2,4.2460886E-1,1.4473547E0,-3.762662E-2,-1.0365391E0,9.173702E-1,7.519799E-2,-1.3283374E0,2.7657194E-2,1.5155239E0,8.8950294E-1,-1.3039349E0,-1.6948823E-2,1.2073584E0,-7.1388595E-2,-8.1784375E-2,-4.252721E-2,6.804687E-2,-3.4793932E-2,-7.135983E-2,3.000539E-2,-1.6715026E-2,-1.6088726E-2,4.219699E-2,7.29252E-2,-3.6891233E-2,-6.449889E-2,-8.987925E-3,5.4944046E-2,-3.9176468E-2,-8.3473966E-2,5.6388505E-2,7.7482074E-2,2.4110153E-2,-5.7466336E-2,7.0927136E-2,-7.013159E-2,8.697302E-3,4.1770134E-2,7.46728E-2],"categories":[],"categories_nodes":[],"categories_segments":[],"categories_sizes":[],"default_left":[0,0,0,0,0,0,0,0,0,0,0,0,0,0,0,0,0,0,0,0,0,0,0,0,0,0,0,0,0,0,0,0,0,0,0,0,0,0,0,0,0,0,0,0,0,0,0,0,0,0,0,0,0,0,0,0,0,0,0,0,0,0,0,0,0,0,0,0,0,0,0,0,0],"id":5,"left_children":[1,3,5,7,9,11,13,15,17,19,-1,21,23,25,-1,27,29,31,-1,-1,33,35,37,39,41,43,45,47,-1,49,51,-1,53,-1,55,57,-1,59,61,-1,63,-1,65,67,69,-1,71,-1,-1,-1,-1,-1,-1,-1,-1,-1,-1,-1,-1,-1,-1,-1,-1,-1,-1,-1,-1,-1,-1,-1,-1,-1,-1],"loss_changes":[1.0343678E3,3.2975995E2,2.107716E2,2.2865082E2,3.472206E0,3.1228088E1,7.734106E1,8.268347E1,5.4629097E0,5.3652143E0,0E0,1.5737244E1,5.2881603E1,9.087097E1,0E0,6.9696045E0,1.17335815E2,4.7060943E0,0E0,0E0,1.2258558E0,1.0843994E1,1.4938814E1,3.387578E1,5.5060196E-1,4.7341743E1,3.6875E0,2.8320312E-2,0E0,1.0647133E1,1.8530945E1,0E0,2.090619E0,0E0,1.5837553E0,9.860596E0,0E0,7.903156E-1,9.374712E0,0E0,1.6438549E1,0E0,8.2336426E-2,1.4199982E1,1.090818E1,0E0,1.4117928E0,0E0,0E0,0E0,0E0,0E0,0E0,0E0,0E0,0E0,0E0,0E0,0E0,0E0,0E0,0E0,0E0,0E0,0E0,0E0,0E0,0E0,0E0,0E0,0E0,0E0,0E0],"parents":[2147483647,0,0,1,1,2,2,3,3,4,4,5,5,6,6,7,7,8,8,9,9,11,11,12,12,13,13,15,15,16,16,17,17,20,20,21,21,22,22,23,23,24,24,25,25,26,26,27,27,29,29,30,30,32,32,34,34,35,35,37,37,38,38,40,40,42,42,43,43,44,44,46,46],"right_children":[2,4,6,8,10,12,14,16,18,20,-1,22,24,26,-1,28,30,32,-1,-1,34,36,38,40,42,44,46,48,-1,50,52,-1,54,-1,56,58,-1,60,62,-1,64,-1,66,68,70,-1,72,-1,-1,-1,-1,-1,-1,-1,-1,-1,-1,-1,-1,-1,-1,-1,-1,-1,-1,-1,-1,-1,-1,-1,-1,-1,-1],"split_conditions":[9.491485E1,8.307954E0,9.533139E1,7.4763644E-1,8.413848E0,1.3E0,8.413848E0,1.0062574E0,9.4776665E1,6.2E1,8.1629634E-2,2.7510418E1,8.272157E0,1.1015813E0,7.9497196E-2,3.08E2,6.798407E0,1.7938559E0,7.8956865E-2,-3.664888E-2,6.6479004E1,3.91E-1,4.546101E1,2.7343096E1,4.016973E1,6.6922493E0,2.6480922E-1,6.731188E0,1.8346798E-2,9.602989E1,1.3654476E0,6.4925745E-2,7.5E0,7.058981E-2,2.0130681E2,6E-1,-3.762662E-2,7.6026244E0,2.386424E0,7.519799E-2,2.7353935E1,2.7657194E-2,2.6620348E1,5.9864907E0,8.272157E0,-1.6948823E-2,2.7148731E1,-7.1388595E-2,-8.1784375E-2,-4.252721E-2,6.804687E-2,-3.4793932E-2,-7.135983E-2,3.000539E-2,-1.6715026E-2,-1.6088726E-2,4.219699E-2,7.29252E-2,-3.6891233E-2,-6.449889E-2,-8.987925E-3,5.4944046E-2,-3.9176468E-2,-8.3473966E-2,5.6388505E-2,7.7482074E-2,2.4110153E-2,-5.7466336E-2,7.0927136E-2,-7.013159E-2,8.697302E-3,4.1770134E-2,7.46728E-2],"split_indices":[1,53,1,12,53,38,53,17,1,62,0,0,53,12,0,66,53,12,0,0,36,45,31,0,7,53,31,52,0,28,38,0,53,0,28,8,0,53,12,0,0,0,63,53,53,0,0,0,0,0,0,0,0,0,0,0,0,0,0,0,0,0,0,0,0,0,0,0,0,0,0,0,0],"split_type":[0,0,0,0,0,0,0,0,0,0,0,0,0,0,0,0,0,0,0,0,0,0,0,0,0,0,0,0,0,0,0,0,0,0,0,0,0,0,0,0,0,0,0,0,0,0,0,0,0,0,0,0,0,0,0,0,0,0,0,0,0,0,0,0,0,0,0,0,0,0,0,0,0],"sum_hessian":[1.1758191E3,6.106369E2,5.651821E2,5.600452E2,5.05917E1,4.3727524E2,1.2790689E2,5.241647E2,3.5880535E1,8.820148E0,4.1771553E1,3.915279E2,4.5747368E1,1.07987816E2,1.9919077E1,3.525812E2,1.7158348E2,1.3455389E1,2.2425146E1,1.2404883E0,7.5796604E0,3.6124393E2,3.0283964E1,2.1042252E1,2.4705116E1,8.276477E1,2.5223047E1,3.51103E2,1.4782017E0,2.604614E1,1.4553734E2,5.7965574E0,7.658831E0,4.3870916E0,3.1925685E0,3.59559E2,1.6849235E0,3.707538E0,2.6576426E1,4.670142E0,1.6372108E1,2.1738496E0,2.2531265E1,1.0653401E1,7.211137E1,1.2320955E0,2.3990952E1,7.456294E1,2.7654007E2,1.7194324E0,2.4326708E1,6.987607E1,7.566127E1,3.7081602E0,3.950671E0,1.2321193E0,1.9604492E0,3.580646E2,1.4943957E0,2.4709978E0,1.2365401E0,2.4333618E1,2.2428088E0,1.4656644E1,1.7154651E0,2.132742E1,1.2038469E0,1.9532869E0,8.700115E0,6.7644775E1,4.466589E0,1.2134663E1,1.1856289E1],"tree_param":{"num_deleted":"0","num_feature":"88","num_nodes":"73","size_leaf_vector":"1"}},{"base_weights":[-1.9872498E-2,-9.811991E-1,8.1339043E-1,6.3174915E-1,-1.2582179E0,1.1107527E0,-5.2521586E-2,-1.3523145E-1,7.889478E-2,-1.4755244E0,-7.527831E-3,-6.228558E-1,1.1759375E0,-6.204409E-1,1.2958273E0,4.7394267E-1,-1.0795875E0,-1.506653E0,1.913247E-1,3.8978305E-1,-8.9103335E-1,-1.1140578E0,1.0530475E0,1.2273921E0,-4.4923773E-1,3.514032E-1,-1.2903705E0,1.3760794E0,-4.7965176E-2,-3.784608E-1,1.0134994E0,-1.4971789E0,7.9502785E-1,-1.5256455E0,4.1337393E-2,7.6273763E-1,-4.608908E-2,-5.4467387E-2,1.137002E0,-1.0965414E0,4.993524E-2,-3.780114E-1,-7.209732E-2,7.986304E-3,6.721569E-2,1.2515272E0,-5.7961322E-2,2.5165793E-1,-7.1889535E-2,6.540363E-1,-8.0844426E-1,5.4490466E-2,-1.3606447E0,1.4233716E0,3.7284847E-3,-3.1508762E-2,3.9311536E-2,-2.7382443E-2,5.8142222E-2,-7.7686936E-2,-2.3191957E-2,5.3785887E-2,4.866734E-3,-7.658679E-2,9.834975E-3,4.156617E-2,-5.5477895E-2,6.935712E-2,-2.431653E-2,-6.045227E-2,2.2569394E-2,6.461855E-2,-2.7091527E-2,-6.309437E-2,-1.3667616E-2,1.7435338E-2,-5.7709802E-2,6.689659E-2,3.6309388E-2,4.9159326E-2,-6.299899E-2,4.2330086E-2,-6.190448E-2,4.528077E-2,-5.6924403E-2,-7.402153E-2,-1.4462486E-2,7.3627405E-2,1.0672352E-2],"categories":[],"categories_nodes":[],"categories_segments":[],"categories_sizes":[],"default_left":[0,0,0,0,0,0,0,0,0,0,0,0,0,0,0,0,0,0,0,0,0,0,0,0,0,0,0,0,0,0,0,0,0,0,0,0,0,0,0,0,0,0,0,0,0,0,0,0,0,0,0,0,0,0,0,0,0,0,0,0,0,0,0,0,0,0,0,0,0,0,0,0,0,0,0,0,0,0,0,0,0,0,0,0,0,0,0,0,0],"id":6,"left_children":[1,3,5,7,9,11,13,15,-1,17,19,21,23,25,27,29,31,33,35,37,39,41,43,45,47,49,51,53,-1,55,57,59,61,63,65,67,-1,69,71,73,-1,75,-1,-1,-1,77,-1,79,-1,81,83,-1,85,87,-1,-1,-1,-1,-1,-1,-1,-1,-1,-1,-1,-1,-1,-1,-1,-1,-1,-1,-1,-1,-1,-1,-1,-1,-1,-1,-1,-1,-1,-1,-1,-1,-1,-1,-1],"loss_changes":[9.2432446E2,2.4018738E2,1.5922278E2,5.7683853E1,1.2435065E2,5.2734253E1,1.2253337E2,2.6203693E1,0E0,2.0515503E1,2.4476845E1,1.5438938E1,3.766681E1,7.371833E1,9.905067E0,1.3189074E1,1.5138153E1,1.1317566E1,5.813106E0,1.6032957E1,9.494314E0,2.8065472E0,9.4106865E-1,2.6247498E1,1.0306839E1,1.692234E1,1.2660561E1,2.7385712E0,0E0,3.8729756E0,4.675501E0,1.5122223E-1,6.5887856E-1,4.2683716E0,6.026023E0,5.241858E0,0E0,1.8725765E1,5.3913937E0,2.3749523E0,0E0,3.581112E0,0E0,0E0,0E0,1.8395325E1,0E0,1.1467101E1,0E0,1.47452965E1,6.751422E0,0E0,7.9592514E0,2.3358765E0,0E0,0E0,0E0,0E0,0E0,0E0,0E0,0E0,0E0,0E0,0E0,0E0,0E0,0E0,0E0,0E0,0E0,0E0,0E0,0E0,0E0,0E0,0E0,0E0,0E0,0E0,0E0,0E0,0E0,0E0,0E0,0E0,0E0,0E0,0E0],"parents":[2147483647,0,0,1,1,2,2,3,3,4,4,5,5,6,6,7,7,9,9,10,10,11,11,12,12,13,13,14,14,15,15,16,16,17,17,18,18,19,19,20,20,21,21,22,22,23,23,24,24,25,25,26,26,27,27,29,29,30,30,31,31,32,32,33,33,34,34,35,35,37,37,38,38,39,39,41,41,45,45,47,47,49,49,50,50,52,52,53,53],"right_children":[2,4,6,8,10,12,14,16,-1,18,20,22,24,26,28,30,32,34,36,38,40,42,44,46,48,50,52,54,-1,56,58,60,62,64,66,68,-1,70,72,74,-1,76,-1,-1,-1,78,-1,80,-1,82,84,-1,86,88,-1,-1,-1,-1,-1,-1,-1,-1,-1,-1,-1,-1,-1,-1,-1,-1,-1,-1,-1,-1,-1,-1,-1,-1,-1,-1,-1,-1,-1,-1,-1,-1,-1,-1,-1],"split_conditions":[9.488175E1,9.488167E1,7E-1,9.478528E1,6.15E1,2.7141901E1,1.0635015E0,1.9598265E0,7.889478E-2,5.146469E-1,1.4858E0,8.162834E-1,2.317162E1,6.066651E0,2.698997E1,7.4139256E0,1.292066E0,1.2199542E1,1.66E2,1.416268E-1,2.566136E2,2.0394084E0,3.6358014E-1,2.21E-1,2.739726E1,2.405E1,9.490972E1,1.05417E2,-4.7965176E-2,1.0044E-1,-2.5E-1,7.0620704E0,3.6358014E-1,1.04E2,1.5035982E1,6.8E0,-4.608908E-2,1.158691E0,2.89E1,1.7215443E0,4.993524E-2,4.9E1,-7.209732E-2,7.986304E-3,6.721569E-2,2.7488611E1,-5.7961322E-2,9.661045E0,-7.1889535E-2,1.3671318E1,4.2019283E1,5.4490466E-2,8E-1,3E1,3.7284847E-3,-3.1508762E-2,3.9311536E-2,-2.7382443E-2,5.8142222E-2,-7.7686936E-2,-2.3191957E-2,5.3785887E-2,4.866734E-3,-7.658679E-2,9.834975E-3,4.156617E-2,-5.5477895E-2,6.935712E-2,-2.431653E-2,-6.045227E-2,2.2569394E-2,6.461855E-2,-2.7091527E-2,-6.309437E-2,-1.3667616E-2,1.7435338E-2,-5.7709802E-2,6.689659E-2,3.6309388E-2,4.9159326E-2,-6.299899E-2,4.2330086E-2,-6.190448E-2,4.528077E-2,-5.6924403E-2,-7.402153E-2,-1.4462486E-2,7.3627405E-2,1.0672352E-2],"split_indices":[1,1,38,1,36,0,19,17,0,19,38,19,13,4,13,4,19,17,62,19,27,17,34,45,0,33,1,35,0,32,54,21,34,35,13,4,0,63,13,19,0,36,0,0,0,0,0,39,0,41,35,0,19,59,0,0,0,0,0,0,0,0,0,0,0,0,0,0,0,0,0,0,0,0,0,0,0,0,0,0,0,0,0,0,0,0,0,0,0],"split_type":[0,0,0,0,0,0,0,0,0,0,0,0,0,0,0,0,0,0,0,0,0,0,0,0,0,0,0,0,0,0,0,0,0,0,0,0,0,0,0,0,0,0,0,0,0,0,0,0,0,0,0,0,0,0,0,0,0,0,0,0,0,0,0,0,0,0,0,0,0,0,0,0,0,0,0,0,0,0,0,0,0,0,0,0,0,0,0,0,0],"sum_hessian":[1.1519124E3,5.3477295E2,6.171394E2,7.819578E1,4.5657715E2,4.5917255E2,1.5796684E2,4.366026E1,3.453552E1,3.8883722E2,6.773995E1,1.6329515E1,4.4284302E2,1.1153049E2,4.6436356E1,2.6842894E1,1.6817368E1,3.8180313E2,7.0340877E0,4.7112408E1,2.0627544E1,1.2887484E1,3.4420319E0,4.2948972E2,1.3353301E1,4.570429E1,6.58262E1,4.521704E1,1.2193133E0,1.0520675E1,1.6322218E1,1.3918261E1,2.8991075E0,3.7718976E2,4.613364E0,4.856018E0,2.1780696E0,3.0127535E1,1.6984873E1,1.8982903E1,1.6446415E0,4.6352057E0,8.252278E0,1.2270426E0,2.2149894E0,4.2566077E2,3.828965E0,8.249639E0,5.103663E0,3.6592495E1,9.111792E0,1.4717071E0,6.435449E1,4.354128E1,1.6757631E0,9.028383E0,1.492291E0,1.192251E0,1.5129968E1,1.2718506E1,1.1997541E0,1.6810012E0,1.2181063E0,3.7597098E2,1.2187738E0,2.9002655E0,1.7130986E0,3.1638696E0,1.6921483E0,8.754932E0,2.1372602E1,1.5756839E1,1.2280337E0,1.5363967E1,3.6189356E0,2.678319E0,1.9568865E0,3.642109E2,6.144986E1,5.794896E0,2.4547422E0,3.371393E1,2.878568E0,1.1896262E0,7.9221654E0,5.7539577E1,6.8149166E0,4.1632114E1,1.9091643E0],"tree_param":{"num_deleted":"0","num_feature":"88","num_nodes":"89","size_leaf_vector":"1"}},{"base_weights":[-8.636707E-4,-5.8586556E-1,1.2682706E0,-1.0254616E0,1.3686321E0,1.1084027E0,1.441058E0,-1.4571627E0,-5.3448635E-1,7.722625E-1,7.827209E-2,1.1976397E0,2.2589092E-1,3.4890127E-1,1.4580009E0,-7.515973E-2,-3.0232948E-1,1.0296006E0,-9.5489085E-1,9.0328807E-1,-7.957939E-1,1.2267314E0,-5.6359448E-2,8.3387923E-1,-1.020255E0,5.1852204E-2,-2.3894155E-2,1.468491E0,-4.3968458E-4,8.155148E-1,-9.3977827E-1,-8.7007177E-1,1.2056637E0,-1.1635717E0,-7.688134E-3,1.0517328E0,-3.738912E-1,-5.2066017E-2,-9.656945E-3,9.7578776E-1,1.3642175E0,1.127828E0,3.6245382E-1,1.3322229E-2,-7.16037E-2,7.395326E-2,5.601033E-1,-7.958519E-3,5.5491783E-2,-6.153741E-2,-2.2340504E-2,2.9757127E-2,-6.78929E-2,6.599553E-2,-4.445289E-2,-6.399798E-2,-3.7688818E-3,4.087813E-2,-5.266082E-2,5.7335854E-2,-3.6661472E-2,-4.860069E-2,3.239512E-2,1.5281799E-2,5.3085923E-2,5.4990347E-2,7.677334E-2,7.7707428E-3,6.423379E-2,3.406483E-2,7.694258E-4,4.1973975E-2,3.6597399E-3],"categories":[],"categories_nodes":[],"categories_segments":[],"categories_sizes":[],"default_left":[0,0,0,0,0,0,0,0,0,0,0,0,0,0,0,0,0,0,0,0,0,0,0,0,0,0,0,0,0,0,0,0,0,0,0,0,0,0,0,0,0,0,0,0,0,0,0,0,0,0,0,0,0,0,0,0,0,0,0,0,0,0,0,0,0,0,0,0,0,0,0,0,0],"id":7,"left_children":[1,3,5,7,9,11,13,15,17,19,-1,21,23,25,27,-1,29,31,33,35,37,39,-1,41,43,-1,-1,45,-1,47,49,51,53,55,57,59,61,-1,-1,63,65,67,69,-1,-1,-1,71,-1,-1,-1,-1,-1,-1,-1,-1,-1,-1,-1,-1,-1,-1,-1,-1,-1,-1,-1,-1,-1,-1,-1,-1,-1,-1],"loss_changes":[8.584125E2,6.8136664E2,8.479431E0,1.3628333E2,1.5897095E1,1.4992737E1,2.673645E0,1.7806763E1,2.0096826E2,8.554176E0,0E0,1.3271423E1,1.5269092E1,2.7382514E0,2.6138916E0,0E0,1.10414095E1,2.2759315E1,4.74749E1,7.1547737E0,3.1270552E-1,4.6750793E0,0E0,1.4398727E0,3.9265304E0,0E0,0E0,7.8378296E-1,0E0,1.8324726E0,8.3393764E-1,5.158261E0,1.5490395E1,2.4834991E1,3.91502E1,6.30225E0,3.3502054E0,0E0,0E0,3.426197E0,3.2901611E0,9.8137E-1,7.1954584E-1,0E0,0E0,0E0,4.2021716E-1,0E0,0E0,0E0,0E0,0E0,0E0,0E0,0E0,0E0,0E0,0E0,0E0,0E0,0E0,0E0,0E0,0E0,0E0,0E0,0E0,0E0,0E0,0E0,0E0,0E0,0E0],"parents":[2147483647,0,0,1,1,2,2,3,3,4,4,5,5,6,6,7,7,8,8,9,9,11,11,12,12,13,13,14,14,16,16,17,17,18,18,19,19,20,20,21,21,23,23,24,24,27,27,29,29,30,30,31,31,32,32,33,33,34,34,35,35,36,36,39,39,40,40,41,41,42,42,46,46],"right_children":[2,4,6,8,10,12,14,16,18,20,-1,22,24,26,28,-1,30,32,34,36,38,40,-1,42,44,-1,-1,46,-1,48,50,52,54,56,58,60,62,-1,-1,64,66,68,70,-1,-1,-1,72,-1,-1,-1,-1,-1,-1,-1,-1,-1,-1,-1,-1,-1,-1,-1,-1,-1,-1,-1,-1,-1,-1,-1,-1,-1,-1],"split_conditions":[1.1015813E0,8.272157E0,6.216971E2,1E-1,8.413848E0,2.7510418E1,9.4776665E1,9.488175E1,6.9E0,9E0,7.827209E-2,1.9E2,7.45E0,2.03505E-1,1.4019628E-1,-7.515973E-2,6.9819736E0,5.9864907E0,6.0371566E-1,2.748768E1,9.189755E0,2.732361E1,-5.6359448E-2,7.2E0,6.7359266E0,5.1852204E-2,-2.3894155E-2,6.686364E0,-4.3968458E-4,4.3565826E0,7.4763644E-1,3.9E0,1.37E1,5.0838172E-2,2.94E0,5.42609E1,4.4728885E0,-5.2066017E-2,-9.656945E-3,9.510487E1,9.4938805E1,1.6667286E0,7.0044127E0,1.3322229E-2,-7.16037E-2,7.395326E-2,1.8692342E2,-7.958519E-3,5.5491783E-2,-6.153741E-2,-2.2340504E-2,2.9757127E-2,-6.78929E-2,6.599553E-2,-4.445289E-2,-6.399798E-2,-3.7688818E-3,4.087813E-2,-5.266082E-2,5.7335854E-2,-3.6661472E-2,-4.860069E-2,3.239512E-2,1.5281799E-2,5.3085923E-2,5.4990347E-2,7.677334E-2,7.7707428E-3,6.423379E-2,3.406483E-2,7.694258E-4,4.1973975E-2,3.6597399E-3],"split_indices":[12,53,61,17,53,0,1,1,53,4,0,28,53,42,32,0,53,53,19,0,59,0,0,53,4,0,0,12,0,4,12,13,41,26,40,56,41,0,0,1,1,12,4,0,0,0,28,0,0,0,0,0,0,0,0,0,0,0,0,0,0,0,0,0,0,0,0,0,0,0,0,0,0],"split_type":[0,0,0,0,0,0,0,0,0,0,0,0,0,0,0,0,0,0,0,0,0,0,0,0,0,0,0,0,0,0,0,0,0,0,0,0,0,0,0,0,0,0,0,0,0,0,0,0,0,0,0,0,0,0,0,0,0,0,0,0,0,0,0,0,0,0,0,0,0,0,0,0,0],"sum_hessian":[1.1541943E3,7.904009E2,3.6379343E2,6.45658E2,1.4474289E2,1.9281256E2,1.7098088E2,3.4252084E2,3.0313715E2,3.7136475E1,1.0760642E2,1.7478204E2,1.8030518E1,2.9417922E0,1.680391E2,3.2910117E2,1.3419676E1,6.39111E1,2.3922606E2,3.466393E1,2.4725456E0,1.7308844E2,1.6936018E0,1.2340489E1,5.690029E0,1.4667162E0,1.4750761E0,1.6684471E2,1.1943738E0,4.7720184E0,8.647658E0,5.08657E0,5.8824528E1,1.9584947E2,4.337659E1,3.1212646E1,3.4512813E0,1.2396247E0,1.232921E0,6.413138E1,1.0895706E2,6.743391E0,5.597098E0,1.4651805E0,4.2248483E0,1.6430388E2,2.5408392E0,1.2132761E0,3.558742E0,4.4968357E0,4.150822E0,1.2154646E0,3.8711052E0,5.6132908E1,2.6916208E0,1.7676714E2,1.9082329E1,2.4363869E1,1.901272E1,2.9975128E1,1.2375181E0,2.2076926E0,1.2435887E0,7.806585E0,5.6324795E1,4.57464E1,6.3210663E1,1.2131364E0,5.5302544E0,2.415239E0,3.1818588E0,1.154382E0,1.3864572E0],"tree_param":{"num_deleted":"0","num_feature":"88","num_nodes":"73","size_leaf_vector":"1"}},{"base_weights":[-1.0863329E-2,-9.224404E-1,7.6258016E-1,6.538698E-1,-1.1996605E0,1.1906867E0,1.8859637E-1,-1.18543595E-1,7.553316E-2,-1.3910958E0,-7.5037725E-2,1.2087831E0,-5.181998E-1,-3.319478E-1,1.1543971E0,-4.7672004E-1,6.5295994E-2,-1.4238456E0,1.5947512E-1,2.9648912E-1,-8.2417667E-1,1.2221538E0,-4.5064084E-2,1.8058978E-2,-5.4406922E-2,3.2238987E-1,-1.1992342E0,1.2236736E0,-5.854265E-2,5.4829144E-1,-1.4696312E0,-1.4413433E0,5.9388363E-1,9.082581E-1,-6.2292285E-2,-7.900728E-1,5.733432E-1,-1.1696484E0,4.3134242E-1,1.2779951E0,5.9964865E-1,7.8146195E-1,-3.643562E-1,-1.3395318E0,5.5939306E-2,1.306278E0,-2.6981503E-2,3.3500273E-2,-2.3164188E-2,-7.592554E-2,-2.1115517E-2,-7.2794184E-2,-1.6669873E-2,-1.1603137E-2,5.243213E-2,5.7345666E-2,-2.3012299E-3,2.3728885E-2,-7.148237E-2,4.048294E-3,5.9269518E-2,-7.09148E-2,-4.7533755E-4,-3.7595756E-2,5.7722416E-2,5.4071225E-2,6.993338E-2,6.578E-3,7.159274E-2,7.688459E-2,-3.979392E-2,-3.5768904E-2,1.7060576E-2,-7.656235E-3,-7.3629014E-2,6.741539E-2,-5.562164E-3,3.699632E-2,-6.0115457E-2],"categories":[],"categories_nodes":[],"categories_segments":[],"categories_sizes":[],"default_left":[0,0,0,0,0,0,0,0,0,0,0,0,0,0,0,0,0,0,0,0,0,0,0,0,0,0,0,0,0,0,0,0,0,0,0,0,0,0,0,0,0,0,0,0,0,0,0,0,0,0,0,0,0,0,0,0,0,0,0,0,0,0,0,0,0,0,0,0,0,0,0,0,0,0,0,0,0,0,0],"id":8,"left_children":[1,3,5,7,9,11,13,15,-1,17,19,21,23,25,27,29,-1,31,33,35,37,39,-1,-1,-1,41,43,45,-1,47,49,51,53,55,-1,57,59,61,63,65,67,69,71,73,-1,75,77,-1,-1,-1,-1,-1,-1,-1,-1,-1,-1,-1,-1,-1,-1,-1,-1,-1,-1,-1,-1,-1,-1,-1,-1,-1,-1,-1,-1,-1,-1,-1,-1],"loss_changes":[7.932691E2,2.264596E2,1.4934512E2,5.1724762E1,9.4527405E1,1.1402374E1,1.3171269E2,2.199412E1,0E0,1.9298096E1,1.8333948E1,1.0837982E1,2.5738513E0,9.715471E1,1.6205788E1,3.561686E1,0E0,1.3844482E1,1.0252036E1,1.3743982E1,9.96528E0,1.1169312E1,0E0,0E0,0E0,3.1173992E1,2.5414314E1,9.286087E0,0E0,2.472229E0,2.6205444E-1,5.3950806E0,1.6973574E0,1.4722891E0,0E0,8.275266E0,1.0689773E1,4.9984703E0,5.520268E0,5.940735E0,1.1556129E1,7.165021E1,1.0135296E1,1.07919235E1,0E0,5.155594E0,6.7734637E0,0E0,0E0,0E0,0E0,0E0,0E0,0E0,0E0,0E0,0E0,0E0,0E0,0E0,0E0,0E0,0E0,0E0,0E0,0E0,0E0,0E0,0E0,0E0,0E0,0E0,0E0,0E0,0E0,0E0,0E0,0E0,0E0],"parents":[2147483647,0,0,1,1,2,2,3,3,4,4,5,5,6,6,7,7,9,9,10,10,11,11,12,12,13,13,14,14,15,15,17,17,18,18,19,19,20,20,21,21,25,25,26,26,27,27,29,29,30,30,31,31,32,32,33,33,35,35,36,36,37,37,38,38,39,39,40,40,41,41,42,42,43,43,45,45,46,46],"right_children":[2,4,6,8,10,12,14,16,-1,18,20,22,24,26,28,30,-1,32,34,36,38,40,-1,-1,-1,42,44,46,-1,48,50,52,54,56,-1,58,60,62,64,66,68,70,72,74,-1,76,78,-1,-1,-1,-1,-1,-1,-1,-1,-1,-1,-1,-1,-1,-1,-1,-1,-1,-1,-1,-1,-1,-1,-1,-1,-1,-1,-1,-1,-1,-1,-1,-1],"split_conditions":[9.488175E1,9.488167E1,1.634923E1,9.478528E1,6.15E1,2.3790162E0,8.162834E-1,1.292066E0,7.553316E-2,1.2199542E1,1.4858E0,6E-1,9.4998726E1,9E0,9.8E1,2.6369846E1,6.5295994E-2,7.054E1,6.578585E1,7.245465E0,1.8813183E0,2.7510418E1,-4.5064084E-2,1.8058978E-2,-5.4406922E-2,9.533139E1,1.8087267E1,2.748768E1,-5.854265E-2,2.0008825E-1,5.9E-1,5.146469E-1,5.0838172E-2,1.61E2,-6.2292285E-2,9.147314E1,6.720141E-3,9.6873E1,3.0562577E0,2.732361E1,1.8016832E-1,2.748768E1,8.8222016E-4,3.1416054E1,5.5939306E-2,2.5134117E1,6.8148E1,3.3500273E-2,-2.3164188E-2,-7.592554E-2,-2.1115517E-2,-7.2794184E-2,-1.6669873E-2,-1.1603137E-2,5.243213E-2,5.7345666E-2,-2.3012299E-3,2.3728885E-2,-7.148237E-2,4.048294E-3,5.9269518E-2,-7.09148E-2,-4.7533755E-4,-3.7595756E-2,5.7722416E-2,5.4071225E-2,6.993338E-2,6.578E-3,7.159274E-2,7.688459E-2,-3.979392E-2,-3.5768904E-2,1.7060576E-2,-7.656235E-3,-7.3629014E-2,6.741539E-2,-5.562164E-3,3.699632E-2,-6.0115457E-2],"split_indices":[1,1,35,1,36,40,19,19,0,17,38,8,1,59,7,7,0,33,35,17,19,0,0,0,0,1,57,0,0,42,47,19,26,62,0,62,19,7,59,0,42,0,6,35,0,56,7,0,0,0,0,0,0,0,0,0,0,0,0,0,0,0,0,0,0,0,0,0,0,0,0,0,0,0,0,0,0,0,0],"split_type":[0,0,0,0,0,0,0,0,0,0,0,0,0,0,0,0,0,0,0,0,0,0,0,0,0,0,0,0,0,0,0,0,0,0,0,0,0,0,0,0,0,0,0,0,0,0,0,0,0,0,0,0,0,0,0,0,0,0,0,0,0,0,0,0,0,0,0,0,0,0,0,0,0,0,0,0,0,0,0],"sum_hessian":[1.1231215E3,5.15437E2,6.0768445E2,7.688725E1,4.3854977E2,3.4745804E2,2.6022644E2,4.0887833E1,3.5999416E1,3.7455536E2,6.3994423E1,3.4410672E2,3.3512993E0,1.69517E2,9.0709435E1,3.320411E1,7.6837254E0,3.66888E2,7.667354E0,4.318269E1,2.0811731E1,3.4235812E2,1.7485881E0,1.461925E0,1.8893743E0,9.697842E1,7.253859E1,8.8545135E1,2.1642919E0,1.655829E1,1.6645819E1,3.640169E2,2.8710904E0,5.2328744E0,2.4344795E0,8.39222E0,3.479047E1,1.6374483E1,4.437248E0,3.1320895E2,2.9149193E1,5.8041344E1,3.893707E1,6.879681E1,3.7417855E0,8.3017456E1,5.527682E0,1.5081346E1,1.4769447E0,1.5473743E1,1.1720753E0,3.5899158E2,5.0253267E0,1.193366E0,1.6777244E0,4.024527E0,1.2083473E0,2.9053533E0,5.486866E0,1.9907581E1,1.488289E1,1.3301186E1,3.0732975E0,1.667988E0,2.7692604E0,1.22927124E2,1.9028181E2,1.9397066E1,9.752128E0,3.924913E1,1.8792215E1,2.5992048E1,1.2945019E1,7.1540813E0,6.1642727E1,8.067428E1,2.343182E0,3.5692058E0,1.958476E0],"tree_param":{"num_deleted":"0","num_feature":"88","num_nodes":"79","size_leaf_vector":"1"}},{"base_weights":[5.005594E-3,-7.658082E-1,8.385592E-1,-1.1277847E0,2.816261E-1,1.1494806E0,-1.8743262E-1,-1.4140614E0,-3.863696E-1,8.780078E-1,-1.0209126E0,3.0519852E-1,1.200745E0,4.7005486E-1,-8.106983E-1,-7.3244505E-2,-1.1610147E0,-5.7342924E-2,-9.325165E-1,-4.5000996E-2,7.684503E-2,-1.2604487E0,5.421607E-2,7.2150595E-2,-6.3522124E-1,1.2492969E0,5.833116E-1,8.103454E-1,-4.2576167E-1,-4.1303676E-1,-1.3107117E0,3.3785805E-1,-7.228042E-2,1.3139021E-1,-6.833452E-2,-1.0933464E0,7.969557E-1,5.284903E-1,-1.0330629E0,-3.5414538E-1,-1.42083E0,-6.7212574E-2,6.140369E-2,1.2599314E0,-3.7962448E-2,-6.174015E-2,8.8658947E-1,-3.543886E-1,9.5978564E-1,-9.5095575E-1,7.0360035E-1,6.582906E-2,-7.787253E-1,-1.4358894E0,1.4912963E-2,-4.2118262E-2,1.0522469E-1,1.38288485E-2,-6.623082E-2,-6.291675E-2,-9.178477E-3,5.1125992E-2,9.019569E-3,-4.9898174E-2,3.824205E-2,-6.311439E-2,7.115844E-3,-4.8264842E-2,1.3253666E-2,-7.395391E-2,-3.8127918E-2,6.361447E-2,-1.5940094E-2,1.968842E-2,7.126651E-2,-4.5660853E-2,4.8225988E-2,7.382422E-2,2.8995706E-2,-6.018582E-2,4.1090406E-2,5.628825E-2,-2.8556723E-2,-5.4194238E-2,1.5375718E-2,-7.3325016E-2,-2.1034447E-2],"categories":[],"categories_nodes":[],"categories_segments":[],"categories_sizes":[],"default_left":[0,0,0,0,0,0,0,0,0,0,0,0,0,0,0,0,0,0,0,0,0,0,0,0,0,0,0,0,0,0,0,0,0,0,0,0,0,0,0,0,0,0,0,0,0,0,0,0,0,0,0,0,0,0,0,0,0,0,0,0,0,0,0,0,0,0,0,0,0,0,0,0,0,0,0,0,0,0,0,0,0,0,0,0,0,0,0],"id":9,"left_children":[1,3,5,7,9,11,13,15,17,19,21,23,25,27,29,-1,31,33,35,37,-1,39,-1,-1,41,43,45,47,49,51,53,55,-1,57,-1,59,61,63,65,67,69,-1,-1,71,-1,-1,73,75,77,79,81,-1,83,85,-1,-1,-1,-1,-1,-1,-1,-1,-1,-1,-1,-1,-1,-1,-1,-1,-1,-1,-1,-1,-1,-1,-1,-1,-1,-1,-1,-1,-1,-1,-1,-1,-1],"loss_changes":[7.112449E2,2.1837735E2,1.6987335E2,9.021655E1,1.1626093E2,1.7304932E1,5.141935E1,2.262329E0,2.1599228E1,6.2349083E1,2.5120377E1,2.7359924E1,1.0799988E1,1.9014143E1,1.2244736E1,0E0,2.4530075E1,1.9024765E1,1.345364E1,2.5266323E1,0E0,5.7113724E0,0E0,0E0,2.0443153E1,8.553589E0,1.758831E1,8.125338E0,1.1057972E1,2.4603949E1,6.07296E0,2.2214727E1,0E0,1.46491E1,0E0,6.044571E0,4.3124533E-1,1.0960867E1,4.5875454E0,3.1926792E0,2.5224304E-1,0E0,0E0,7.3153687E0,0E0,0E0,6.3997555E0,5.1678247E0,6.977478E0,6.53685E0,3.9442225E0,0E0,1.07418995E1,1.9648361E-1,0E0,0E0,0E0,0E0,0E0,0E0,0E0,0E0,0E0,0E0,0E0,0E0,0E0,0E0,0E0,0E0,0E0,0E0,0E0,0E0,0E0,0E0,0E0,0E0,0E0,0E0,0E0,0E0,0E0,0E0,0E0,0E0,0E0],"parents":[2147483647,0,0,1,1,2,2,3,3,4,4,5,5,6,6,7,7,8,8,9,9,10,10,11,11,12,12,13,13,14,14,16,16,17,17,18,18,19,19,21,21,24,24,25,25,26,26,27,27,28,28,29,29,30,30,31,31,33,33,35,35,36,36,37,37,38,38,39,39,40,40,43,43,46,46,47,47,48,48,49,49,50,50,52,52,53,53],"right_children":[2,4,6,8,10,12,14,16,18,20,22,24,26,28,30,-1,32,34,36,38,-1,40,-1,-1,42,44,46,48,50,52,54,56,-1,58,-1,60,62,64,66,68,70,-1,-1,72,-1,-1,74,76,78,80,82,-1,84,86,-1,-1,-1,-1,-1,-1,-1,-1,-1,-1,-1,-1,-1,-1,-1,-1,-1,-1,-1,-1,-1,-1,-1,-1,-1,-1,-1,-1,-1,-1,-1,-1,-1],"split_conditions":[9.491485E1,2.731405E1,9.533139E1,6.9412476E-1,2.7488611E1,-2.1E-1,2E0,9E1,1.4858E0,9.478528E1,8.305126E0,2.7348532E1,2.7510418E1,1.1583025E1,2.7290709E1,-7.3244505E-2,6.376867E0,2.6E2,8.305126E0,1.9598265E0,7.684503E-2,1.8504087E1,5.421607E-2,7.2150595E-2,2.7353935E1,6E-1,4.546101E1,9.5332184E1,2.1719873E2,9.537E1,8.731559E1,3.7665477E-1,-7.228042E-2,4.9880683E-2,-6.833452E-2,2.3629938E2,8.852025E0,-2.8E-1,8.257058E0,1.9E1,1.5443693E-1,-6.7212574E-2,6.140369E-2,8.55E0,-3.7962448E-2,-6.174015E-2,4.117768E2,9.70204E0,9.536639E1,1.2287773E0,7.13728E1,6.582906E-2,3.0523282E-1,3.7E0,1.4912963E-2,-4.2118262E-2,1.0522469E-1,1.38288485E-2,-6.623082E-2,-6.291675E-2,-9.178477E-3,5.1125992E-2,9.019569E-3,-4.9898174E-2,3.824205E-2,-6.311439E-2,7.115844E-3,-4.8264842E-2,1.3253666E-2,-7.395391E-2,-3.8127918E-2,6.361447E-2,-1.5940094E-2,1.968842E-2,7.126651E-2,-4.5660853E-2,4.8225988E-2,7.382422E-2,2.8995706E-2,-6.018582E-2,4.1090406E-2,5.628825E-2,-2.8556723E-2,-5.4194238E-2,1.5375718E-2,-7.3325016E-2,-2.1034447E-2],"split_indices":[1,0,1,17,0,54,40,28,38,1,52,0,0,13,0,0,4,62,52,17,0,62,0,0,0,8,31,1,28,1,33,4,0,30,0,28,4,54,52,13,30,0,0,40,0,0,31,13,1,38,7,0,45,38,0,0,0,0,0,0,0,0,0,0,0,0,0,0,0,0,0,0,0,0,0,0,0,0,0,0,0,0,0,0,0,0,0],"split_type":[0,0,0,0,0,0,0,0,0,0,0,0,0,0,0,0,0,0,0,0,0,0,0,0,0,0,0,0,0,0,0,0,0,0,0,0,0,0,0,0,0,0,0,0,0,0,0,0,0,0,0,0,0,0,0,0,0,0,0,0,0,0,0,0,0,0,0,0,0,0,0,0,0,0,0,0,0,0,0,0,0,0,0,0,0,0,0],"sum_hessian":[1.1049712E3,5.741331E2,5.308381E2,4.266225E2,1.475106E2,4.0729047E2,1.23547585E2,3.0712683E2,1.19495674E2,1.0140647E2,4.6104137E1,2.3712845E1,3.835776E2,6.0242813E1,6.3304768E1,2.5176637E2,5.5360455E1,7.526014E1,4.4235535E1,4.2625835E1,5.8780632E1,4.1754536E1,4.349601E0,1.0488446E1,1.32244E1,3.5466516E2,2.891246E1,4.372759E1,1.6515224E1,3.6278484E1,2.7026285E1,8.804188E0,4.6556267E1,6.6564926E1,8.6952095E0,4.080843E1,3.4271073E0,2.7265507E1,1.5360332E1,6.7603655E0,3.499417E1,9.781034E0,3.4433649E0,3.5316797E2,1.4971974E0,3.6942647E0,2.5218197E1,4.8164945E0,3.8911095E1,1.1380741E1,5.1344843E0,5.877772E0,3.0400711E1,2.517523E1,1.8510547E0,5.591738E0,3.21245E0,6.126581E1,5.29912E0,3.4219566E1,6.5888634E0,2.0270975E0,1.4000099E0,3.2236176E0,2.4041887E1,1.2791724E1,2.5686069E0,3.121066E0,3.6392994E0,3.1003843E1,3.9903293E0,3.5061752E2,2.5504446E0,1.4074365E1,1.1143831E1,3.599123E0,1.2173715E0,1.5263282E1,2.3647814E1,1.0241502E1,1.1392391E0,3.9448864E0,1.1895977E0,2.3734968E1,6.665743E0,2.4006819E1,1.1684107E0],"tree_param":{"num_deleted":"0","num_feature":"88","num_nodes":"87","size_leaf_vector":"1"}},{"base_weights":[1.5001964E-2,-5.071976E-1,1.1461786E0,-9.066696E-1,1.2692536E0,9.54116E-1,1.3739846E0,-3.6044675E-1,-1.291059E0,6.7766696E-1,7.346284E-2,3.2786444E-1,1.293278E0,7.345927E-2,8.1640035E-1,-1.3648114E0,-3.5051033E-2,-1.3523557E0,-8.592415E-2,8.157525E-1,-6.561079E-1,5.846886E-1,-1.463648E0,1.3679472E0,-6.59112E-2,-2.8290985E-2,9.5934814E-1,-7.145426E-2,4.2939354E-2,1.4288898E0,-5.631767E-1,-1.3702737E0,5.2064817E-2,1.1484251E0,-1.1032957E0,9.469654E-1,-4.0408057E-1,-6.753539E-3,-4.9648385E-2,7.548725E-1,-1.2921274E0,-8.21929E-2,-1.7910989E-2,9.7129136E-1,7.125998E-2,1.0689178E0,-2.9669E-2,-2.7428387E-2,7.4372195E-2,-4.2260822E-2,4.94434E-2,-7.0205465E-2,-5.9772254E-5,-1.6661875E-2,7.063674E-2,-6.957672E-2,7.1052127E-3,-1.2330071E-2,5.1433176E-2,-5.4161143E-2,2.9769195E-2,1.2935676E-2,6.2483292E-2,-3.0861626E-4,-8.3200134E-2,6.0477775E-2,-3.135763E-2,3.649525E-2,6.763366E-2],"categories":[],"categories_nodes":[],"categories_segments":[],"categories_sizes":[],"default_left":[0,0,0,0,0,0,0,0,0,0,0,0,0,0,0,0,0,0,0,0,0,0,0,0,0,0,0,0,0,0,0,0,0,0,0,0,0,0,0,0,0,0,0,0,0,0,0,0,0,0,0,0,0,0,0,0,0,0,0,0,0,0,0,0,0,0,0,0,0],"id":10,"left_children":[1,3,5,7,9,11,13,15,17,19,-1,21,23,-1,25,27,29,31,33,35,37,39,41,43,-1,-1,45,-1,-1,47,49,51,-1,53,55,57,59,-1,-1,61,63,-1,-1,65,-1,67,-1,-1,-1,-1,-1,-1,-1,-1,-1,-1,-1,-1,-1,-1,-1,-1,-1,-1,-1,-1,-1,-1,-1],"loss_changes":[6.329802E2,5.214263E2,1.3496857E1,1.2533093E2,1.4979065E1,3.927336E1,6.8979187E0,8.128392E1,2.5832886E1,7.1597633E0,0E0,3.1682457E1,2.5378433E1,0E0,5.3830776E0,9.9268265E0,1.469217E2,1.5760803E1,2.395925E1,5.670965E0,5.5543256E-1,1.9920341E1,1.1414604E0,1.2961121E0,0E0,0E0,4.4745007E0,0E0,0E0,6.6501694E0,6.1945663E1,1.5384888E1,0E0,3.8599834E0,3.936679E0,3.1917343E0,3.2987828E0,0E0,0E0,1.3182291E1,2.5242605E0,0E0,0E0,7.624235E0,0E0,1.0752468E0,0E0,0E0,0E0,0E0,0E0,0E0,0E0,0E0,0E0,0E0,0E0,0E0,0E0,0E0,0E0,0E0,0E0,0E0,0E0,0E0,0E0,0E0,0E0],"parents":[2147483647,0,0,1,1,2,2,3,3,4,4,5,5,6,6,7,7,8,8,9,9,11,11,12,12,14,14,15,15,16,16,17,17,18,18,19,19,20,20,21,21,22,22,23,23,26,26,29,29,30,30,31,31,33,33,34,34,35,35,36,36,39,39,40,40,43,43,45,45],"right_children":[2,4,6,8,10,12,14,16,18,20,-1,22,24,-1,26,28,30,32,34,36,38,40,42,44,-1,-1,46,-1,-1,48,50,52,-1,54,56,58,60,-1,-1,62,64,-1,-1,66,-1,68,-1,-1,-1,-1,-1,-1,-1,-1,-1,-1,-1,-1,-1,-1,-1,-1,-1,-1,-1,-1,-1,-1,-1],"split_conditions":[1.1015813E0,8.272157E0,4.117768E2,6.499756E0,8.413848E0,4.346406E2,2.396961E0,5.9E1,6.5197315E0,9E0,7.346284E-2,2.7510418E1,3.6E2,7.345927E-2,2.4033725E0,4.117768E2,6.798407E0,4.117768E2,2.7500627E0,2.76E1,7.751124E0,8.5E0,2.3166628E0,4.3565826E0,-6.59112E-2,-2.8290985E-2,1.00778595E3,-7.145426E-2,4.2939354E-2,5.9864907E0,3.7665477E-1,1.5176883E-3,5.2064817E-2,5.5411663E1,2.2074571E2,2.7141901E1,2.14E2,-6.753539E-3,-4.9648385E-2,2.4033725E0,1.6329664E0,-8.21929E-2,-1.7910989E-2,4.2E0,7.125998E-2,2.6086054E0,-2.9669E-2,-2.7428387E-2,7.4372195E-2,-4.2260822E-2,4.94434E-2,-7.0205465E-2,-5.9772254E-5,-1.6661875E-2,7.063674E-2,-6.957672E-2,7.1052127E-3,-1.2330071E-2,5.1433176E-2,-5.4161143E-2,2.9769195E-2,1.2935676E-2,6.2483292E-2,-3.0861626E-4,-8.3200134E-2,6.0477775E-2,-3.135763E-2,3.649525E-2,6.763366E-2],"split_indices":[12,53,31,4,53,61,12,28,17,4,0,0,31,0,12,31,53,31,40,13,40,4,12,4,0,0,31,0,0,53,4,32,0,36,28,0,28,0,0,12,12,0,0,4,0,12,0,0,0,0,0,0,0,0,0,0,0,0,0,0,0,0,0,0,0,0,0,0,0],"split_type":[0,0,0,0,0,0,0,0,0,0,0,0,0,0,0,0,0,0,0,0,0,0,0,0,0,0,0,0,0,0,0,0,0,0,0,0,0,0,0,0,0,0,0,0,0,0,0,0,0,0,0,0,0,0,0,0,0,0,0,0,0,0,0,0,0,0,0,0,0],"sum_hessian":[1.0695923E3,7.321515E2,3.3744083E2,5.9813745E2,1.34014E2,1.8589851E2,1.5154233E2,2.4786105E2,3.502764E2,3.4968723E1,9.904529E1,6.599942E1,1.1989909E2,1.2804524E2,2.3497074E1,5.9870567E1,1.8799048E2,3.3320636E2,1.707003E1,3.2040012E1,2.9287102E0,5.831347E1,7.685955E0,1.1702913E2,2.8699675E0,1.925022E0,2.1572052E1,5.8535885E1,1.3346858E0,4.9386826E1,1.3860367E2,3.31155E2,2.0513663E0,7.654372E0,9.415657E0,2.913027E1,2.9097426E0,1.7000824E0,1.2286277E0,5.401348E1,4.2999854E0,6.1897984E0,1.4961565E0,1.702711E1,1.0000202E2,2.0441189E1,1.130863E0,1.1796565E0,4.820717E1,1.1767501E2,2.0928646E1,3.2314322E2,8.011784E0,1.11926E0,6.535112E0,7.550752E0,1.8649054E0,1.7368815E0,2.7393389E1,1.6826013E0,1.2271413E0,2.772991E1,2.6283573E1,1.1925861E0,3.1073992E0,1.5030024E1,1.9970849E0,1.0941404E1,9.499784E0],"tree_param":{"num_deleted":"0","num_feature":"88","num_nodes":"69","size_leaf_vector":"1"}},{"base_weights":[-7.821584E-3,-7.453855E-1,7.818244E-1,-9.3896425E-1,1.3322818E0,1.0671275E0,-1.00059465E-1,-1.086778E0,1.0691698E0,1.3666306E0,-8.406424E-5,1.1440146E0,4.647086E-1,-3.8637882E-1,1.3047011E0,-1.3189212E0,-5.05837E-1,4.7437495E-1,1.323986E0,1.281448E-2,1.4013793E0,1.2078861E0,4.1976646E-1,7.189307E-2,-3.1237245E-1,8.357353E-1,-9.013497E-1,4.7236592E-1,7.048767E-2,-1.3341157E0,4.670829E-1,1.118043E0,-7.978169E-1,5.8731545E-2,-4.3589878E-1,6.973689E-2,-2.7268764E-3,7.10862E-2,1.5710719E-2,1.2177204E0,-3.5286397E-2,-1.1466259E-1,1.2801925E0,-1.154692E0,9.8789346E-1,9.2312324E-1,-4.04714E-2,8.23513E-1,-1.1641523E0,4.641855E-2,-1.5936136E-2,-6.712965E-2,2.7037624E-2,4.428495E-2,-1.0046039E-2,-4.615766E-2,6.551547E-2,-4.6025123E-3,-5.0601967E-2,-4.669248E-2,3.955124E-2,6.336964E-2,4.3402087E-2,-7.237491E-2,6.069633E-2,6.754663E-2,1.7041568E-2,-7.34553E-2,5.093631E-2,-2.1744318E-2,6.0369235E-2,3.3560753E-2,7.041135E-2,-4.9548775E-2,6.3774385E-2,-6.664248E-2,4.812348E-3],"categories":[],"categories_nodes":[],"categories_segments":[],"categories_sizes":[],"default_left":[0,0,0,0,0,0,0,0,0,0,0,0,0,0,0,0,0,0,0,0,0,0,0,0,0,0,0,0,0,0,0,0,0,0,0,0,0,0,0,0,0,0,0,0,0,0,0,0,0,0,0,0,0,0,0,0,0,0,0,0,0,0,0,0,0,0,0,0,0,0,0,0,0,0,0,0,0],"id":11,"left_children":[1,3,5,7,9,11,13,15,17,19,-1,21,23,25,27,29,31,33,35,-1,37,39,41,-1,43,45,47,49,-1,51,53,55,57,-1,59,-1,-1,-1,-1,61,-1,63,65,67,69,71,-1,73,75,-1,-1,-1,-1,-1,-1,-1,-1,-1,-1,-1,-1,-1,-1,-1,-1,-1,-1,-1,-1,-1,-1,-1,-1,-1,-1,-1,-1],"loss_changes":[6.123089E2,2.1987671E2,1.27856964E2,1.4893634E2,2.1440735E0,1.7241455E1,5.0790462E1,6.193634E1,4.6215706E0,1.3991165E0,0E0,1.5202576E1,3.4565987E1,6.66015E1,1.2049751E0,9.606934E0,6.450132E1,8.127069E0,2.3866234E0,0E0,5.256653E-1,6.722412E0,1.3507349E1,0E0,2.9514067E1,5.281151E0,3.4544342E1,1.7034396E0,0E0,5.9473267E0,1.1660078E0,9.397055E0,1.7187218E1,0E0,4.35777E0,0E0,0E0,0E0,0E0,4.2899475E0,0E0,3.5119884E1,2.8476524E-1,1.2555067E1,3.8738737E0,2.7713184E0,0E0,9.778162E0,1.3887276E1,0E0,0E0,0E0,0E0,0E0,0E0,0E0,0E0,0E0,0E0,0E0,0E0,0E0,0E0,0E0,0E0,0E0,0E0,0E0,0E0,0E0,0E0,0E0,0E0,0E0,0E0,0E0,0E0],"parents":[2147483647,0,0,1,1,2,2,3,3,4,4,5,5,6,6,7,7,8,8,9,9,11,11,12,12,13,13,14,14,15,15,16,16,17,17,18,18,20,20,21,21,22,22,24,24,25,25,26,26,27,27,29,29,30,30,31,31,32,32,34,34,39,39,41,41,42,42,43,43,44,44,45,45,47,47,48,48],"right_children":[2,4,6,8,10,12,14,16,18,20,-1,22,24,26,28,30,32,34,36,-1,38,40,42,-1,44,46,48,50,-1,52,54,56,58,-1,60,-1,-1,-1,-1,62,-1,64,66,68,70,72,-1,74,76,-1,-1,-1,-1,-1,-1,-1,-1,-1,-1,-1,-1,-1,-1,-1,-1,-1,-1,-1,-1,-1,-1,-1,-1,-1,-1,-1,-1],"split_conditions":[9.491485E1,8.307954E0,9.533139E1,7.4763644E-1,2.4E2,1.3E0,8.351617E0,4.6380177E1,4.117768E2,8.326833E0,-8.406424E-5,2.7510418E1,2.735389E1,2.44E1,4.3E1,7.054E1,6.798407E0,7.495628E0,2.5242338E-1,1.281448E-2,2.69E1,5.9486395E-1,4.346406E2,7.189307E-2,8.272157E0,1.8609577E0,6.6922493E0,3.3562326E-1,7.048767E-2,3.2E1,2.7495762E1,5.9864907E0,7.5E1,5.8731545E-2,9.4776665E1,6.973689E-2,-2.7268764E-3,7.10862E-2,1.5710719E-2,9.53086E1,-3.5286397E-2,4.117768E2,2.459786E-1,2.7353935E1,4.025844E0,2.6059137E-3,-4.04714E-2,5.9864907E0,8.162834E-1,4.641855E-2,-1.5936136E-2,-6.712965E-2,2.7037624E-2,4.428495E-2,-1.0046039E-2,-4.615766E-2,6.551547E-2,-4.6025123E-3,-5.0601967E-2,-4.669248E-2,3.955124E-2,6.336964E-2,4.3402087E-2,-7.237491E-2,6.069633E-2,6.754663E-2,1.7041568E-2,-7.34553E-2,5.093631E-2,-2.1744318E-2,6.0369235E-2,3.3560753E-2,7.041135E-2,-4.9548775E-2,6.3774385E-2,-6.664248E-2,4.812348E-3],"split_indices":[1,53,1,12,62,38,53,36,31,53,0,0,0,36,36,33,53,53,42,0,59,8,61,0,53,40,53,59,0,59,36,53,62,0,1,0,0,0,0,1,0,31,42,0,66,46,0,53,19,0,0,0,0,0,0,0,0,0,0,0,0,0,0,0,0,0,0,0,0,0,0,0,0,0,0,0,0],"split_type":[0,0,0,0,0,0,0,0,0,0,0,0,0,0,0,0,0,0,0,0,0,0,0,0,0,0,0,0,0,0,0,0,0,0,0,0,0,0,0,0,0,0,0,0,0,0,0,0,0,0,0,0,0,0,0,0,0,0,0,0,0,0,0,0,0,0,0,0,0,0,0,0,0,0,0,0,0],"sum_hessian":[1.0493279E3,5.425854E2,5.067425E2,4.968421E2,4.5743294E1,3.827174E2,1.2402507E2,4.632055E2,3.3636593E1,4.4571125E1,1.1721699E0,3.386024E2,4.411504E1,1.036284E2,2.0396667E1,3.300483E2,1.331572E2,1.0946589E1,2.2690004E1,1.6067141E0,4.296441E1,3.1054736E2,2.805501E1,1.9208963E1,2.4906075E1,3.0536701E1,7.3091705E1,2.9018264E0,1.7494843E1,3.2751498E2,2.5333388E0,1.986218E1,1.1329501E2,6.0228853E0,4.9237037E0,2.157112E1,1.1188854E0,4.187309E1,1.0913217E0,3.0932138E2,1.2259843E0,1.784058E1,1.021443E1,1.5182635E1,9.72344E0,2.9413214E1,1.1234866E0,9.38185E0,6.3709854E1,1.7306794E0,1.171147E0,3.2632343E2,1.1915618E0,1.357038E0,1.1763008E0,1.3825815E0,1.8479599E1,2.6714016E1,8.658099E1,3.672199E0,1.2515047E0,2.6854916E2,4.0772213E1,8.861379E0,8.979202E0,9.091632E0,1.1227977E0,1.3546947E1,1.6356885E0,1.168391E0,8.555049E0,2.0928802E1,8.484411E0,1.6330986E0,7.7487516E0,5.613855E1,7.5713034E0],"tree_param":{"num_deleted":"0","num_feature":"88","num_nodes":"77","size_leaf_vector":"1"}},{"base_weights":[-7.960116E-3,-7.3128945E-1,7.651507E-1,-9.455408E-1,1.1667159E0,1.0471973E0,-8.711449E-2,-1.0753579E0,1.1254915E0,1.8350582E-1,1.3069037E0,1.0787618E0,-1.1941706E-1,-3.7418777E-1,1.2776952E0,-1.2537789E0,-3.6371204E-1,1.1736422E0,-2.0234135E-3,6.296059E-1,-4.8661795E-2,1.3401971E0,-1.5242273E-3,1.1276219E0,4.2854744E-1,-1.0462606E0,9.9978757E-1,8.69214E-1,-8.799781E-1,1.3454107E0,5.183444E-4,-1.2728049E0,5.7907917E-2,1.1824723E0,-8.16471E-1,3.4247047E-1,1.2749124E0,-2.6814532E-1,6.7718156E-2,1.3573344E0,1.5624555E-2,1.1387066E0,-5.2361615E-2,-1.0397176E-1,1.2466955E0,-6.234799E-2,-2.8594935E-3,5.5332985E-2,1.4366659E-2,9.316038E-1,-1.9581718E-2,8.0779177E-1,-1.1183355E0,6.933594E-2,1.522366E-2,-6.5128654E-2,-1.5724976E-2,7.0847735E-2,1.775262E-2,-1.6027741E-2,-6.3265786E-2,-1.9717304E-2,4.705432E-2,6.5178625E-2,1.6171254E-2,2.3408467E-2,-4.8343398E-2,6.876725E-2,1.6488176E-2,6.3373394E-2,4.5729853E-2,-7.850255E-2,5.914684E-2,6.588788E-2,1.663864E-2,6.739702E-2,3.1042162E-2,-5.0569125E-2,6.76616E-2,-6.1839413E-2,-9.6756695E-3],"categories":[],"categories_nodes":[],"categories_segments":[],"categories_sizes":[],"default_left":[0,0,0,0,0,0,0,0,0,0,0,0,0,0,0,0,0,0,0,0,0,0,0,0,0,0,0,0,0,0,0,0,0,0,0,0,0,0,0,0,0,0,0,0,0,0,0,0,0,0,0,0,0,0,0,0,0,0,0,0,0,0,0,0,0,0,0,0,0,0,0,0,0,0,0,0,0,0,0,0,0],"id":12,"left_children":[1,3,5,7,9,11,13,15,17,19,21,23,25,27,29,31,33,35,-1,37,-1,39,-1,41,43,45,47,49,51,53,-1,55,-1,57,59,61,63,65,-1,67,-1,69,-1,71,73,-1,-1,-1,-1,75,-1,77,79,-1,-1,-1,-1,-1,-1,-1,-1,-1,-1,-1,-1,-1,-1,-1,-1,-1,-1,-1,-1,-1,-1,-1,-1,-1,-1,-1,-1],"loss_changes":[5.7848834E2,2.1843115E2,1.2028821E2,1.3047003E2,7.2937317E0,1.3966309E1,4.955352E1,5.7053772E1,1.6670303E0,4.732629E0,2.1635284E0,1.1143616E1,1.224883E1,6.6335304E1,1.8735428E0,1.8073608E1,6.5511536E1,1.8980522E0,0E0,4.507187E0,0E0,3.9546204E-1,0E0,9.38385E0,1.1976612E1,1.1983585E0,9.345245E-2,2.7759876E0,3.0918762E1,4.752159E-1,0E0,9.842163E0,0E0,3.6279144E0,1.5600811E1,2.3028622E0,2.4259567E-1,2.3457952E0,0E0,3.8807678E-1,0E0,8.609924E0,0E0,3.467506E1,2.6275253E-1,0E0,0E0,0E0,0E0,2.9801254E0,0E0,1.1106258E1,6.9685974E0,0E0,0E0,0E0,0E0,0E0,0E0,0E0,0E0,0E0,0E0,0E0,0E0,0E0,0E0,0E0,0E0,0E0,0E0,0E0,0E0,0E0,0E0,0E0,0E0,0E0,0E0,0E0,0E0],"parents":[2147483647,0,0,1,1,2,2,3,3,4,4,5,5,6,6,7,7,8,8,9,9,10,10,11,11,12,12,13,13,14,14,15,15,16,16,17,17,19,19,21,21,23,23,24,24,25,25,26,26,27,27,28,28,29,29,31,31,33,33,34,34,35,35,36,36,37,37,39,39,41,41,43,43,44,44,49,49,51,51,52,52],"right_children":[2,4,6,8,10,12,14,16,18,20,22,24,26,28,30,32,34,36,-1,38,-1,40,-1,42,44,46,48,50,52,54,-1,56,-1,58,60,62,64,66,-1,68,-1,70,-1,72,74,-1,-1,-1,-1,76,-1,78,80,-1,-1,-1,-1,-1,-1,-1,-1,-1,-1,-1,-1,-1,-1,-1,-1,-1,-1,-1,-1,-1,-1,-1,-1,-1,-1,-1,-1],"split_conditions":[9.491485E1,8.272157E0,9.533139E1,4.546101E1,8.307954E0,2.4E-1,8.307954E0,5.6391277E0,2.5854027E-1,2.072683E1,1.2142939E2,2.7510418E1,8.272157E0,2.33E1,1.98E1,4.526047E-1,6.798407E0,3.0088177E2,-2.0234135E-3,1.41E1,-4.8661795E-2,3.7E0,-1.5242273E-3,6E-1,2.2677626E-2,6.9471793E0,2.418151E0,1.2292408E0,6.629388E0,9.678895E-1,5.183444E-4,5.0838172E-2,5.7907917E-2,6.629388E0,1.8E2,9.1206975E-4,5.5480323E0,1.7327102E-1,6.7718156E-2,5.502429E-1,1.5624555E-2,9.5187225E1,-5.2361615E-2,4.117768E2,2.5242338E-1,-6.234799E-2,-2.8594935E-3,5.5332985E-2,1.4366659E-2,9.536639E1,-1.9581718E-2,5.9864907E0,5.0838172E-2,6.933594E-2,1.522366E-2,-6.5128654E-2,-1.5724976E-2,7.0847735E-2,1.775262E-2,-1.6027741E-2,-6.3265786E-2,-1.9717304E-2,4.705432E-2,6.5178625E-2,1.6171254E-2,2.3408467E-2,-4.8343398E-2,6.876725E-2,1.6488176E-2,6.3373394E-2,4.5729853E-2,-7.850255E-2,5.914684E-2,6.588788E-2,1.663864E-2,6.739702E-2,3.1042162E-2,-5.0569125E-2,6.76616E-2,-6.1839413E-2,-9.6756695E-3],"split_indices":[1,53,1,31,53,55,53,17,42,59,35,0,53,36,34,32,53,31,0,59,0,38,0,8,30,17,19,40,53,44,0,26,0,53,62,8,66,59,0,32,0,1,0,31,42,0,0,0,0,1,0,53,26,0,0,0,0,0,0,0,0,0,0,0,0,0,0,0,0,0,0,0,0,0,0,0,0,0,0,0,0],"split_type":[0,0,0,0,0,0,0,0,0,0,0,0,0,0,0,0,0,0,0,0,0,0,0,0,0,0,0,0,0,0,0,0,0,0,0,0,0,0,0,0,0,0,0,0,0,0,0,0,0,0,0,0,0,0,0,0,0,0,0,0,0,0,0,0,0,0,0,0,0,0,0,0,0,0,0,0,0,0,0,0,0],"sum_hessian":[1.0324668E3,5.334347E2,4.990321E2,4.79778E2,5.3656654E1,3.747759E2,1.2425619E2,4.5193073E2,2.7847303E1,6.9839034E0,4.667275E1,3.6497623E2,9.799666E0,1.03261955E2,2.0994228E1,3.6072845E2,9.120225E1,2.6736574E1,1.11073E0,5.3690314E0,1.6148717E0,4.5537037E1,1.1357139E0,3.3878424E2,2.6191984E1,5.396147E0,4.40352E0,2.9651106E1,7.3610855E1,1.9870882E1,1.1233472E0,3.583738E2,2.3546414E0,2.0292181E1,7.0910065E1,3.3796847E0,2.3356888E1,2.6797125E0,2.6893191E0,4.447467E1,1.0623674E0,3.375403E2,1.243937E0,1.6394192E1,9.797793E0,4.2691293E0,1.1270173E0,3.3479955E0,1.0555243E0,2.8501894E1,1.1492122E0,8.813672E0,6.479718E1,1.8792929E1,1.0779517E0,3.472285E2,1.1145351E1,1.52562275E1,5.035954E0,3.450292E1,3.640715E1,1.6679264E0,1.7117583E0,2.2314705E1,1.0421832E0,1.4654176E0,1.2142949E0,4.3375957E1,1.0987115E0,2.1141628E2,1.2612404E2,7.560761E0,8.83343E0,8.680937E0,1.1168566E0,1.0755213E1,1.7746681E1,1.8359818E0,6.9776907E0,5.714112E1,7.6560597E0],"tree_param":{"num_deleted":"0","num_feature":"88","num_nodes":"81","size_leaf_vector":"1"}},{"base_weights":[4.849003E-3,-8.0342174E-1,6.6642416E-1,5.637733E-1,-1.0511668E0,9.1593736E-1,-7.251389E-2,-9.037633E-2,6.8172306E-2,-1.1363201E0,1.2488729E0,-6.1987716E-1,9.822722E-1,-7.467545E-1,1.1492324E0,4.336579E-1,-9.7476506E-1,-1.1987246E0,5.106927E-1,6.792152E-2,3.3641665E-4,-9.884648E-1,6.189009E-1,1.0859755E0,3.9441317E-1,8.044237E-1,-9.8996955E-1,5.147086E-1,6.785328E-2,-2.6392102E-1,8.3586025E-1,-1.241146E0,4.3437842E-2,-1.263185E0,-3.2730982E-1,9.730752E-1,-6.998697E-1,2.571297E-2,-6.2760375E-2,-1.3563146E-2,5.5252858E-2,1.1132153E0,-7.9337937E-1,-9.470332E-1,9.2460984E-1,-2.7003516E-2,1.1090685E0,6.688049E-2,-1.0744789E0,-4.921117E-2,8.356882E-1,2.0870838E-2,-4.9465843E-2,4.955211E-2,-3.684374E-2,-6.831183E-2,4.2023207E-3,-6.772838E-2,-5.151652E-2,4.785521E-2,-4.103228E-2,5.9367694E-2,-2.3243006E-2,-5.3649306E-2,-5.368958E-3,6.1134715E-2,3.9567467E-2,-5.813801E-2,1.1089432E-2,-6.8193875E-2,5.150826E-2,3.20394E-2,6.71567E-2,6.5864176E-2,8.398077E-3,1.9753203E-2,-5.9610393E-2,5.498072E-2,-3.4545593E-2],"categories":[],"categories_nodes":[],"categories_segments":[],"categories_sizes":[],"default_left":[0,0,0,0,0,0,0,0,0,0,0,0,0,0,0,0,0,0,0,0,0,0,0,0,0,0,0,0,0,0,0,0,0,0,0,0,0,0,0,0,0,0,0,0,0,0,0,0,0,0,0,0,0,0,0,0,0,0,0,0,0,0,0,0,0,0,0,0,0,0,0,0,0,0,0,0,0,0,0],"id":13,"left_children":[1,3,5,7,9,11,13,15,-1,17,19,21,23,25,27,29,31,33,35,-1,-1,37,39,41,43,45,47,49,-1,51,53,55,-1,57,59,61,63,-1,-1,-1,-1,65,67,69,71,-1,73,-1,75,-1,77,-1,-1,-1,-1,-1,-1,-1,-1,-1,-1,-1,-1,-1,-1,-1,-1,-1,-1,-1,-1,-1,-1,-1,-1,-1,-1,-1,-1],"loss_changes":[5.411765E2,1.5488632E2,1.0267561E2,3.7019054E1,7.701828E1,4.3001953E1,1.1734432E2,1.8837437E1,0E0,3.8922394E1,1.9309998E0,8.758298E0,2.3912537E1,3.5402683E1,5.9850845E0,7.414978E0,8.489518E0,1.9776306E1,8.690093E0,0E0,0E0,6.311592E0,2.3364496E0,1.8229034E1,4.4576145E1,5.9174213E0,1.712297E1,7.613839E0,0E0,5.423393E0,4.758374E0,2.3689842E0,0E0,5.7183228E0,1.732753E1,3.871049E0,8.87625E-1,0E0,0E0,0E0,0E0,1.0816071E1,2.292093E0,1.6157621E1,4.430538E0,0E0,1.9172821E0,0E0,1.3879829E1,0E0,5.661831E0,0E0,0E0,0E0,0E0,0E0,0E0,0E0,0E0,0E0,0E0,0E0,0E0,0E0,0E0,0E0,0E0,0E0,0E0,0E0,0E0,0E0,0E0,0E0,0E0,0E0,0E0,0E0,0E0],"parents":[2147483647,0,0,1,1,2,2,3,3,4,4,5,5,6,6,7,7,9,9,10,10,11,11,12,12,13,13,14,14,15,15,16,16,17,17,18,18,21,21,22,22,23,23,24,24,25,25,26,26,27,27,29,29,30,30,31,31,33,33,34,34,35,35,36,36,41,41,42,42,43,43,44,44,46,46,48,48,50,50],"right_children":[2,4,6,8,10,12,14,16,-1,18,20,22,24,26,28,30,32,34,36,-1,-1,38,40,42,44,46,48,50,-1,52,54,56,-1,58,60,62,64,-1,-1,-1,-1,66,68,70,72,-1,74,-1,76,-1,78,-1,-1,-1,-1,-1,-1,-1,-1,-1,-1,-1,-1,-1,-1,-1,-1,-1,-1,-1,-1,-1,-1,-1,-1,-1,-1,-1,-1],"split_conditions":[9.488175E1,9.488167E1,8E-1,9.478528E1,8.326833E0,2.7141901E1,8.272157E0,2E0,6.8172306E-2,3.32E-2,8.9E0,8.162834E-1,2.7488611E1,6.798407E0,8.413848E0,7.4139256E0,8.413848E0,1.0055588E1,7.68E0,6.792152E-2,3.3641665E-4,6.6120176E0,1.5518986E1,2.21E-1,1.2168118E0,5.9864907E0,9.490972E1,4.025844E0,6.785328E-2,7.4324017E0,4.9671333E-5,6.802337E-2,4.3437842E-2,9E1,6.816003E0,1.008E0,7.790719E0,2.571297E-2,-6.2760375E-2,-1.3563146E-2,5.5252858E-2,9.53086E1,3.189966E-2,8.307954E0,7.5E1,-2.7003516E-2,9.53E0,6.688049E-2,8.79571E1,-4.921117E-2,2.4200867E1,2.0870838E-2,-4.9465843E-2,4.955211E-2,-3.684374E-2,-6.831183E-2,4.2023207E-3,-6.772838E-2,-5.151652E-2,4.785521E-2,-4.103228E-2,5.9367694E-2,-2.3243006E-2,-5.3649306E-2,-5.368958E-3,6.1134715E-2,3.9567467E-2,-5.813801E-2,1.1089432E-2,-6.8193875E-2,5.150826E-2,3.20394E-2,6.71567E-2,6.5864176E-2,8.398077E-3,1.9753203E-2,-5.9610393E-2,5.498072E-2,-3.4545593E-2],"split_indices":[1,1,38,1,53,0,53,17,0,6,4,19,0,53,53,4,53,17,53,0,0,53,66,45,12,53,1,66,0,53,44,8,0,28,53,59,53,0,0,0,0,1,42,53,28,0,41,0,28,0,59,0,0,0,0,0,0,0,0,0,0,0,0,0,0,0,0,0,0,0,0,0,0,0,0,0,0,0,0],"split_type":[0,0,0,0,0,0,0,0,0,0,0,0,0,0,0,0,0,0,0,0,0,0,0,0,0,0,0,0,0,0,0,0,0,0,0,0,0,0,0,0,0,0,0,0,0,0,0,0,0,0,0,0,0,0,0,0,0,0,0,0,0,0,0,0,0,0,0,0,0,0,0,0,0,0,0,0,0,0,0],"sum_hessian":[1.0100508E3,4.5452563E2,5.5552515E2,6.9532265E1,3.8499338E2,4.1511572E2,1.404094E2,3.8734E1,3.079826E1,3.717367E2,1.3256687E1,1.6841805E1,3.9827393E2,9.0728294E1,4.9681107E1,2.4642204E1,1.4091799E1,3.5842822E2,1.3308475E1,1.2096183E1,1.1605039E0,1.3135512E1,3.7062924E0,3.378304E2,6.0443527E1,1.1984708E1,7.874358E1,1.3115485E1,3.656562E1,9.137665E0,1.5504539E1,1.2598171E1,1.4936277E0,3.3332208E2,2.5106138E1,9.772124E0,3.5363498E0,1.8402635E0,1.1295248E1,1.4653062E0,2.2409863E0,3.334056E2,4.4247875E0,1.6899652E1,4.3543873E1,2.0711744E0,9.913534E0,2.239331E0,7.650425E1,1.9487536E0,1.1166732E1,4.9308577E0,4.206807E0,1.4448741E1,1.0557982E0,1.1483246E1,1.1149253E0,2.3591957E2,9.7402504E1,6.706224E0,1.8399914E1,8.656424E0,1.1157006E0,1.6722729E0,1.8640769E0,2.4669608E2,8.670955E1,3.1377084E0,1.2870789E0,1.4213318E1,2.6863356E0,2.7455805E1,1.6088068E1,7.790262E0,2.1232717E0,5.4996443E0,7.100461E1,9.759209E0,1.4075232E0],"tree_param":{"num_deleted":"0","num_feature":"88","num_nodes":"79","size_leaf_vector":"1"}},{"base_weights":[6.7650727E-3,-7.7461064E-1,6.331841E-1,5.1755077E-1,-1.0158285E0,2.0166707E-1,1.0377825E0,-9.5060565E-2,6.644619E-2,-1.2242144E0,-7.964691E-3,4.1887015E-1,-9.26735E-1,8.698104E-1,1.2713727E0,3.4499478E-1,-9.5577043E-1,-1.2455682E0,6.4789724E-1,2.9845402E-1,-6.732878E-1,1.4124349E0,-3.6451735E-2,-1.1003987E0,5.249643E-2,2.6619968E-1,1.1266538E0,6.818233E-2,7.1092737E-1,6.1206084E-2,5.9970003E-2,-1.1884924E0,4.8254877E-2,-6.660017E-2,-9.998337E-1,5.4273438E-2,-2.8212524E-3,4.27583E-1,-4.92093E-2,-8.4003246E-1,4.18193E-2,-9.346551E-3,7.3356085E-2,-2.9568732E-1,1.2432564E0,-1.3064898E0,-4.2132467E-1,-2.5873435E-1,1.0488695E0,1.2023076E0,-7.392337E-2,-3.4154315E-2,9.0759885E-1,2.6435269E-2,-6.0692985E-2,-6.50608E-2,-3.723677E-3,3.1765442E-2,-3.6045063E-2,-2.5818408E-2,-6.526935E-2,3.04723E-2,-3.8293537E-2,-4.7438603E-2,2.4557779E-2,-4.7585305E-2,4.175487E-2,-3.616793E-2,3.1937744E-2,6.358785E-2,1.3520755E-2,-6.651034E-2,-1.628226E-2,5.514389E-2,-4.7555074E-2,1.0493293E-2,-6.26932E-2,5.7025958E-2,-1.2619607E-2,6.1736125E-2,-3.8101286E-2,5.6727465E-2,7.2069685E-3],"categories":[],"categories_nodes":[],"categories_segments":[],"categories_sizes":[],"default_left":[0,0,0,0,0,0,0,0,0,0,0,0,0,0,0,0,0,0,0,0,0,0,0,0,0,0,0,0,0,0,0,0,0,0,0,0,0,0,0,0,0,0,0,0,0,0,0,0,0,0,0,0,0,0,0,0,0,0,0,0,0,0,0,0,0,0,0,0,0,0,0,0,0,0,0,0,0,0,0,0,0,0,0],"id":14,"left_children":[1,3,5,7,9,11,13,15,-1,17,19,21,23,25,27,29,31,33,35,37,39,41,43,45,-1,47,49,-1,51,53,-1,55,57,-1,59,-1,-1,61,-1,63,-1,65,-1,67,69,71,73,75,77,79,-1,-1,81,-1,-1,-1,-1,-1,-1,-1,-1,-1,-1,-1,-1,-1,-1,-1,-1,-1,-1,-1,-1,-1,-1,-1,-1,-1,-1,-1,-1,-1,-1],"loss_changes":[4.8763828E2,1.3870047E2,9.633153E1,3.511875E1,7.851959E1,6.627319E1,1.008197E1,1.5876359E1,0E0,1.3193268E1,1.3466511E1,1.0234368E2,1.6157413E1,2.5905556E1,5.086609E0,6.6902523E0,3.3639326E0,5.18219E0,1.3408703E0,7.9144187E0,5.944989E0,5.540634E0,5.2130325E1,5.1401825E0,0E0,2.1538912E1,2.508638E1,0E0,5.7315226E0,1.3751919E1,0E0,1.350666E0,2.0943055E0,0E0,1.1707245E1,0E0,0E0,9.539871E0,0E0,3.2529202E0,0E0,3.6806302E0,0E0,5.26365E1,3.9017868E-1,2.8142166E-1,9.88539E0,1.5085546E1,2.7897797E0,8.293945E0,0E0,0E0,2.7419014E0,0E0,0E0,0E0,0E0,0E0,0E0,0E0,0E0,0E0,0E0,0E0,0E0,0E0,0E0,0E0,0E0,0E0,0E0,0E0,0E0,0E0,0E0,0E0,0E0,0E0,0E0,0E0,0E0,0E0,0E0],"parents":[2147483647,0,0,1,1,2,2,3,3,4,4,5,5,6,6,7,7,9,9,10,10,11,11,12,12,13,13,14,14,15,15,16,16,17,17,18,18,19,19,20,20,21,21,22,22,23,23,25,25,26,26,28,28,29,29,31,31,32,32,34,34,37,37,39,39,41,41,43,43,44,44,45,45,46,46,47,47,48,48,49,49,52,52],"right_children":[2,4,6,8,10,12,14,16,-1,18,20,22,24,26,28,30,32,34,36,38,40,42,44,46,-1,48,50,-1,52,54,-1,56,58,-1,60,-1,-1,62,-1,64,-1,66,-1,68,70,72,74,76,78,80,-1,-1,82,-1,-1,-1,-1,-1,-1,-1,-1,-1,-1,-1,-1,-1,-1,-1,-1,-1,-1,-1,-1,-1,-1,-1,-1,-1,-1,-1,-1,-1,-1],"split_conditions":[9.488175E1,9.488167E1,1.1015813E0,9.478528E1,6.15E1,2.7488611E1,4.117768E2,9.605914E-3,6.644619E-2,3.32E-2,1.4858E0,9.5187225E1,8.407495E0,3.5487347E1,2.396961E0,8.257058E0,1.2512352E-2,9E1,7.3E1,3.4E0,8.305126E0,3.5487347E1,8.305126E0,1.3276918E2,5.249643E-2,2.4033725E0,3.6E2,6.818233E-2,2.4033725E0,6.498288E0,5.9970003E-2,8.257058E0,1.87E1,-6.660017E-2,6.6223435E0,5.4273438E-2,-2.8212524E-3,1.446299E-1,-4.92093E-2,3.0459366E-3,4.18193E-2,4.117768E2,7.3356085E-2,8.8222016E-4,4.9604926E-2,5.256639E-1,7.4297814E0,2.747207E1,2.7506653E1,6E-1,-7.392337E-2,-3.4154315E-2,9.530907E1,2.6435269E-2,-6.0692985E-2,-6.50608E-2,-3.723677E-3,3.1765442E-2,-3.6045063E-2,-2.5818408E-2,-6.526935E-2,3.04723E-2,-3.8293537E-2,-4.7438603E-2,2.4557779E-2,-4.7585305E-2,4.175487E-2,-3.616793E-2,3.1937744E-2,6.358785E-2,1.3520755E-2,-6.651034E-2,-1.628226E-2,5.514389E-2,-4.7555074E-2,1.0493293E-2,-6.26932E-2,5.7025958E-2,-1.2619607E-2,6.1736125E-2,-3.8101286E-2,5.6727465E-2,7.2069685E-3],"split_indices":[1,1,12,1,36,0,31,47,0,6,38,1,52,28,12,52,44,28,62,59,52,28,52,27,0,12,31,0,12,59,0,52,63,0,52,0,0,32,0,44,0,31,0,6,47,47,52,0,0,8,0,0,1,0,0,0,0,0,0,0,0,0,0,0,0,0,0,0,0,0,0,0,0,0,0,0,0,0,0,0,0,0,0],"split_type":[0,0,0,0,0,0,0,0,0,0,0,0,0,0,0,0,0,0,0,0,0,0,0,0,0,0,0,0,0,0,0,0,0,0,0,0,0,0,0,0,0,0,0,0,0,0,0,0,0,0,0,0,0,0,0,0,0,0,0,0,0,0,0,0,0,0,0,0,0,0,0,0,0,0,0,0,0,0,0,0,0,0,0],"sum_hessian":[9.9425854E2,4.4230472E2,5.5195386E2,6.939931E1,3.7290543E2,2.6781705E2,2.841368E2,4.004611E1,2.9353195E1,3.0883585E2,6.4069565E1,2.2511421E2,4.2702835E1,1.6803107E2,1.1610574E2,2.6894783E1,1.3151327E1,3.056838E2,3.1520388E0,4.4244087E1,1.9825476E1,7.008299E1,1.5503122E2,3.9661594E1,3.0412438E0,5.076472E1,1.1726634E2,9.846152E1,1.7644232E1,2.0993483E1,5.9013E0,1.0527452E1,2.6238754E0,2.2287032E2,8.28135E1,1.610399E0,1.5416398E0,4.0802917E1,3.44117E0,1.8252987E1,1.5724896E0,2.6265047E0,6.745648E1,1.2955557E2,2.5475647E1,2.9718456E1,9.943137E0,3.0786043E1,1.9978676E1,1.1448027E2,2.7860732E0,1.8757343E0,1.5768498E1,1.5789615E1,5.2038674E0,9.407504E0,1.1199486E0,1.5867875E0,1.0370879E0,3.311183E1,4.9701668E1,3.583204E1,4.9708776E0,1.7140148E1,1.1128384E0,1.1812569E0,1.4452479E0,8.9033165E1,4.0522404E1,2.4452034E1,1.0236114E0,2.8669048E1,1.0494071E0,2.2855844E0,7.6575527E0,2.1466644E1,9.319399E0,1.8779535E1,1.1991416E0,1.1298721E2,1.4930515E0,1.1780497E1,3.9880013E0],"tree_param":{"num_deleted":"0","num_feature":"88","num_nodes":"83","size_leaf_vector":"1"}},{"base_weights":[-1.8637093E-3,-7.5560486E-1,6.11713E-1,-9.1722834E-1,1.1750026E0,9.544253E-1,1.3867286E-1,-1.0556955E0,9.102593E-1,-1.88072E-2,1.2659292E0,7.6258695E-1,1.2070869E0,-3.67212E-1,1.2707342E0,-1.1353008E0,2.4270135E-1,4.1571754E-1,6.2725194E-2,1.2905439E0,1.7211048E-2,7.94165E-1,-1.0651853E0,1.2348685E0,-3.644769E-2,8.302932E-1,-6.6978884E-1,1.3417962E-2,1.2818974E0,-1.2178491E0,-3.5012934E-1,9.5009166E-1,-9.356677E-1,4.9023382E-2,-1.7533442E-1,6.573515E-2,1.5688058E-2,8.726496E-1,1.8128224E-2,5.1165693E-3,-8.3297454E-2,1.248428E0,-1.0489966E-2,1.0482785E0,-6.158533E-1,7.406328E-2,-7.826074E-1,1.4929856E-2,6.463563E-2,-6.161377E-2,2.0997342E-2,3.8813706E-2,-5.543254E-2,5.3779867E-2,-1.5038031E-2,-5.3538676E-2,3.7294005E-6,-1.7617274E-2,2.0541927E-2,4.606486E-2,-2.084192E-2,2.5421137E-2,-4.473025E-2,1.6128551E-2,6.273546E-2,-4.4322144E-2,5.8199782E-2,-5.6139257E-2,2.6386702E-2,-5.113081E-2,3.283783E-3],"categories":[],"categories_nodes":[],"categories_segments":[],"categories_sizes":[],"default_left":[0,0,0,0,0,0,0,0,0,0,0,0,0,0,0,0,0,0,0,0,0,0,0,0,0,0,0,0,0,0,0,0,0,0,0,0,0,0,0,0,0,0,0,0,0,0,0,0,0,0,0,0,0,0,0,0,0,0,0,0,0,0,0,0,0,0,0,0,0,0,0],"id":15,"left_children":[1,3,5,7,9,11,13,15,17,-1,19,21,23,25,27,29,31,33,-1,35,-1,37,39,41,-1,43,45,-1,47,49,51,53,55,-1,57,-1,-1,59,61,-1,-1,63,-1,65,67,-1,69,-1,-1,-1,-1,-1,-1,-1,-1,-1,-1,-1,-1,-1,-1,-1,-1,-1,-1,-1,-1,-1,-1,-1,-1],"loss_changes":[4.475763E2,1.3658817E2,8.6356064E1,1.0250824E2,5.269657E0,1.4066162E1,1.2949472E2,3.8879852E1,4.381729E0,0E0,2.8934097E-1,1.1146606E1,7.9852448E0,5.725891E1,4.3711853E-1,2.23945E1,1.9561071E1,4.616729E0,0E0,3.220787E-1,0E0,1.0704338E1,2.59599E0,2.813095E0,0E0,1.0736984E1,3.161052E1,0E0,3.4540558E-1,8.035645E0,3.0678602E1,2.598833E0,1.1260967E0,0E0,9.078804E-1,0E0,0E0,1.0409737E1,8.146146E0,0E0,0E0,3.464203E-1,0E0,7.342737E0,3.3886313E0,0E0,2.4474342E1,0E0,0E0,0E0,0E0,0E0,0E0,0E0,0E0,0E0,0E0,0E0,0E0,0E0,0E0,0E0,0E0,0E0,0E0,0E0,0E0,0E0,0E0,0E0,0E0],"parents":[2147483647,0,0,1,1,2,2,3,3,4,4,5,5,6,6,7,7,8,8,10,10,11,11,12,12,13,13,14,14,15,15,16,16,17,17,19,19,21,21,22,22,23,23,25,25,26,26,28,28,29,29,30,30,31,31,32,32,34,34,37,37,38,38,41,41,43,43,44,44,46,46],"right_children":[2,4,6,8,10,12,14,16,18,-1,20,22,24,26,28,30,32,34,-1,36,-1,38,40,42,-1,44,46,-1,48,50,52,54,56,-1,58,-1,-1,60,62,-1,-1,64,-1,66,68,-1,70,-1,-1,-1,-1,-1,-1,-1,-1,-1,-1,-1,-1,-1,-1,-1,-1,-1,-1,-1,-1,-1,-1,-1,-1],"split_conditions":[9.488175E1,8.307954E0,2.75E1,7.4763644E-1,5.6354122E1,6.216971E2,8.307954E0,6.0371566E-1,9.4776665E1,-1.88072E-2,2.69E1,1.9E2,5.9486395E-1,6.9819736E0,-8.4139174E-1,1.5176883E-3,1.8085849E0,1.8029315E0,6.2725194E-2,1.2142939E2,1.7211048E-2,2.7510418E1,1.2168118E0,1.4019628E-1,-3.644769E-2,1.1926069E1,9.490972E1,1.3417962E-2,1.92E0,1.0555775E2,1.74E2,2.0892102E2,1.0670567E2,4.9023382E-2,2.6086054E0,6.573515E-2,1.5688058E-2,2.3790162E0,7.45E0,5.1165693E-3,-8.3297454E-2,1.1E0,-1.0489966E-2,8.125069E1,2.0130681E2,7.406328E-2,6.0371566E-1,1.4929856E-2,6.463563E-2,-6.161377E-2,2.0997342E-2,3.8813706E-2,-5.543254E-2,5.3779867E-2,-1.5038031E-2,-5.3538676E-2,3.7294005E-6,-1.7617274E-2,2.0541927E-2,4.606486E-2,-2.084192E-2,2.5421137E-2,-4.473025E-2,1.6128551E-2,6.273546E-2,-4.4322144E-2,5.8199782E-2,-5.6139257E-2,2.6386702E-2,-5.113081E-2,3.283783E-3],"split_indices":[1,53,35,12,62,61,53,19,1,0,59,28,8,53,54,32,40,12,0,35,0,0,12,32,0,59,1,0,39,7,62,62,36,0,12,0,0,40,53,0,0,12,0,28,28,0,19,0,0,0,0,0,0,0,0,0,0,0,0,0,0,0,0,0,0,0,0,0,0,0,0],"split_type":[0,0,0,0,0,0,0,0,0,0,0,0,0,0,0,0,0,0,0,0,0,0,0,0,0,0,0,0,0,0,0,0,0,0,0,0,0,0,0,0,0,0,0,0,0,0,0,0,0,0,0,0,0,0,0,0,0,0,0,0,0,0,0,0,0,0,0,0,0,0,0],"sum_hessian":[9.657792E2,4.3328445E2,5.324947E2,4.0029785E2,3.2986595E1,3.0819397E2,2.2430074E2,3.7249643E2,2.7801414E1,1.6528759E0,3.1333721E1,1.7746692E2,1.3072705E2,1.554917E2,6.880903E1,3.510962E2,2.1400246E1,1.2315947E1,1.5485468E1,3.0128944E1,1.2047758E0,1.7500882E2,2.4580915E0,1.2923474E2,1.4923087E0,3.1011951E1,1.24479744E2,1.0336591E0,6.7775375E1,3.1719693E2,3.3899284E1,1.349359E1,7.9066553E0,5.9611835E0,6.3547626E0,2.9064142E1,1.0648023E0,1.5882185E2,1.6186974E1,1.1169971E0,1.3410944E0,1.2816762E2,1.0671293E0,2.718877E1,3.8231826E0,5.598889E0,1.1888085E2,1.0485831E0,6.672679E1,3.1467276E2,2.5241456E0,1.363215E1,2.0267132E1,1.2390486E1,1.1031046E0,6.782998E0,1.123657E0,5.1872387E0,1.167524E0,1.5332307E2,5.4987783E0,1.081853E1,5.3684425E0,1.2164474E0,1.2695117E2,1.1585246E0,2.6030245E1,2.6615539E0,1.161629E0,9.250302E1,2.6377834E1],"tree_param":{"num_deleted":"0","num_feature":"88","num_nodes":"71","size_leaf_vector":"1"}},{"base_weights":[2.3756005E-2,-7.198332E-1,6.147922E-1,-8.7536716E-1,1.1196399E0,9.207957E-1,1.5261292E-1,-1.0121853E0,8.8926387E-1,-1.8194126E-2,1.2094648E0,7.4031705E-1,1.2186481E0,-3.462932E-1,1.243293E0,-1.1628819E0,-2.47717E-1,3.8948163E-1,6.382499E-2,1.2599542E0,1.2261189E-2,3.3342436E-2,1.0065689E0,6.6268615E-2,6.3002545E-1,8.9031476E-1,-6.4737177E-1,1.2750161E0,5.2928287E-1,-1.1964366E0,-1.2834008E-1,1.0838147E0,-7.214006E-1,-5.988573E-1,9.812761E-1,1.2872024E0,1.2392708E-2,-5.271419E-1,9.3402714E-1,1.0540059E0,-7.538345E-2,-4.2354714E-2,8.50383E-1,-6.4522994E-1,1.0575496E0,7.3076226E-2,-7.79015E-1,6.4377755E-2,1.2703396E-2,-1.5385008E-2,4.5934115E-2,-6.054392E-2,4.1216593E-2,4.0177908E-2,-5.7042446E-2,6.313234E-2,-3.0815577E-2,-5.6841536E-3,-5.4397818E-2,2.4846757E-2,-5.2812297E-2,-1.0873584E-2,6.165592E-2,6.570577E-2,1.5115055E-2,-7.6520643E-3,-6.896251E-2,5.6902558E-2,-7.502754E-2,5.4039817E-2,-5.9545882E-2,4.9559638E-2,-3.59254E-2,-4.0150094E-3,-4.394928E-2,5.8721032E-2,-2.2173636E-2,-4.8980426E-2,8.543232E-3],"categories":[],"categories_nodes":[],"categories_segments":[],"categories_sizes":[],"default_left":[0,0,0,0,0,0,0,0,0,0,0,0,0,0,0,0,0,0,0,0,0,0,0,0,0,0,0,0,0,0,0,0,0,0,0,0,0,0,0,0,0,0,0,0,0,0,0,0,0,0,0,0,0,0,0,0,0,0,0,0,0,0,0,0,0,0,0,0,0,0,0,0,0,0,0,0,0,0,0],"id":16,"left_children":[1,3,5,7,9,11,13,15,17,-1,19,21,23,25,27,29,31,33,-1,35,-1,37,39,-1,41,43,45,47,49,51,53,55,57,59,61,63,-1,65,67,69,-1,-1,71,73,75,-1,77,-1,-1,-1,-1,-1,-1,-1,-1,-1,-1,-1,-1,-1,-1,-1,-1,-1,-1,-1,-1,-1,-1,-1,-1,-1,-1,-1,-1,-1,-1,-1,-1],"loss_changes":[4.1536414E2,1.207287E2,7.432828E1,9.421039E1,4.846916E0,1.6116974E1,1.1521692E2,4.108618E1,4.987894E0,0E0,1.2203484E0,3.755509E1,6.5720215E0,5.4756477E1,8.297348E-1,1.0251282E1,3.888349E1,8.66614E0,0E0,4.97509E-1,0E0,2.8593267E1,1.8886108E1,0E0,7.2312355E0,8.10741E0,3.3789013E1,4.7798157E-1,1.7608762E0,9.467163E0,1.0858424E1,5.719042E0,9.935911E0,3.4287903E0,2.990673E0,3.6066437E-1,0E0,1.0930728E1,1.2492914E1,9.8832855E0,0E0,0E0,4.6677523E0,3.8643646E-1,5.1614246E0,0E0,2.1383965E1,0E0,0E0,0E0,0E0,0E0,0E0,0E0,0E0,0E0,0E0,0E0,0E0,0E0,0E0,0E0,0E0,0E0,0E0,0E0,0E0,0E0,0E0,0E0,0E0,0E0,0E0,0E0,0E0,0E0,0E0,0E0,0E0],"parents":[2147483647,0,0,1,1,2,2,3,3,4,4,5,5,6,6,7,7,8,8,10,10,11,11,12,12,13,13,14,14,15,15,16,16,17,17,19,19,21,21,22,22,24,24,25,25,26,26,27,27,28,28,29,29,30,30,31,31,32,32,33,33,34,34,35,35,37,37,38,38,39,39,42,42,43,43,44,44,46,46],"right_children":[2,4,6,8,10,12,14,16,18,-1,20,22,24,26,28,30,32,34,-1,36,-1,38,40,-1,42,44,46,48,50,52,54,56,58,60,62,64,-1,66,68,70,-1,-1,72,74,76,-1,78,-1,-1,-1,-1,-1,-1,-1,-1,-1,-1,-1,-1,-1,-1,-1,-1,-1,-1,-1,-1,-1,-1,-1,-1,-1,-1,-1,-1,-1,-1,-1,-1],"split_conditions":[9.488175E1,8.307954E0,3.2E1,2.7393677E1,5.6354122E1,4.117768E2,8.307954E0,7.245465E0,9.4776665E1,-1.8194126E-2,2.2E2,3.5487347E1,2.396961E0,6.9E0,8.995565E0,5.0838172E-2,6.816003E0,4.117768E2,6.382499E-2,2.69E1,1.2261189E-2,2.4033725E0,3.6E2,6.6268615E-2,2.4033725E0,5.9864907E0,9.490972E1,5.7944706E1,8.413848E0,7.4763644E-1,9.3E1,2.585636E1,1.8E1,7.37E0,7.4139256E0,1.2142939E2,1.2392708E-2,2.7474592E1,3.0088177E2,1.3100491E-1,-7.538345E-2,-4.2354714E-2,9.4175165E2,6.15E1,1.1926069E1,7.3076226E-2,7.4704033E-1,6.4377755E-2,1.2703396E-2,-1.5385008E-2,4.5934115E-2,-6.054392E-2,4.1216593E-2,4.0177908E-2,-5.7042446E-2,6.313234E-2,-3.0815577E-2,-5.6841536E-3,-5.4397818E-2,2.4846757E-2,-5.2812297E-2,-1.0873584E-2,6.165592E-2,6.570577E-2,1.5115055E-2,-7.6520643E-3,-6.896251E-2,5.6902558E-2,-7.502754E-2,5.4039817E-2,-5.9545882E-2,4.9559638E-2,-3.59254E-2,-4.0150094E-3,-4.394928E-2,5.8721032E-2,-2.2173636E-2,-4.8980426E-2,8.543232E-3],"split_indices":[1,53,35,0,62,31,53,17,1,0,27,28,12,53,4,26,53,31,0,59,0,12,31,0,12,53,1,56,53,12,27,63,63,53,4,35,0,0,31,55,0,0,31,36,59,0,19,0,0,0,0,0,0,0,0,0,0,0,0,0,0,0,0,0,0,0,0,0,0,0,0,0,0,0,0,0,0,0,0],"split_type":[0,0,0,0,0,0,0,0,0,0,0,0,0,0,0,0,0,0,0,0,0,0,0,0,0,0,0,0,0,0,0,0,0,0,0,0,0,0,0,0,0,0,0,0,0,0,0,0,0,0,0,0,0,0,0,0,0,0,0,0,0,0,0,0,0,0,0,0,0,0,0,0,0,0,0,0,0,0,0],"sum_hessian":[9.431018E2,4.1755426E2,5.2554755E2,3.854843E2,3.2069946E1,3.1560016E2,2.099474E2,3.5814264E2,2.7341673E1,1.6567386E0,3.0413208E1,1.9869177E2,1.1690839E2,1.4452179E2,6.542562E1,2.9873337E2,5.940927E1,1.2811908E1,1.4529764E1,2.8608534E1,1.8046738E0,5.4665234E1,1.4402654E2,9.7905334E1,1.9003046E1,2.7914125E1,1.1660766E2,6.1890167E1,3.535452E0,2.8919696E2,9.536411E0,1.5250849E1,4.415842E1,4.7938695E0,8.018039E0,2.7593828E1,1.014705E0,3.3952045E1,2.0713184E1,1.4192949E2,2.0970464E0,2.0976589E0,1.6905388E1,2.4608104E0,2.5453314E1,6.2577467E0,1.1034991E2,6.0881298E1,1.0088679E0,1.1891903E0,2.3462615E0,2.8754276E2,1.6541995E0,5.0733466E0,4.4630647E0,1.4032163E1,1.2186856E0,1.7106863E1,2.7051558E1,1.3862616E0,3.407608E0,1.4157355E0,6.602303E0,2.6534496E1,1.0593325E0,2.4413433E1,9.538614E0,1.9602953E1,1.1102324E0,1.4076816E2,1.1613406E0,1.58509655E1,1.0544219E0,1.113435E0,1.3473755E0,2.3816523E1,1.6367912E0,9.108374E1,1.9266169E1],"tree_param":{"num_deleted":"0","num_feature":"88","num_nodes":"79","size_leaf_vector":"1"}},{"base_weights":[3.0224791E-3,-4.448666E-1,9.559738E-1,-7.726624E-1,1.0943779E0,7.5391513E-1,1.1992601E0,-2.9722646E-1,-1.1367136E0,5.5285275E-1,6.499162E-2,6.661573E-2,1.1659533E0,6.524392E-2,6.167726E-1,-1.232582E0,-1.8002633E-2,-1.1993713E0,4.0656686E-1,6.8451405E-1,-5.351267E-1,-4.7150868E-1,8.441598E-1,1.2080959E0,-4.261052E-2,-4.5383725E-2,8.4667224E-1,-6.398841E-2,1.8337868E-2,1.2873267E0,-4.824303E-1,-1.2251929E0,6.6179734E-1,1.2134984E0,-5.33815E-2,8.1952006E-1,-3.3297982E-2,-5.4555684E-2,2.018348E-2,7.615934E-1,-7.159908E-1,9.431635E-1,-3.980228E-2,1.2254474E0,4.0341908E-1,1.0158388E-1,1.0149888E0,-4.018703E-2,6.78849E-2,-3.4993485E-2,4.444555E-2,-6.2148716E-2,4.6080228E-2,5.092714E-2,-8.698259E-3,6.8986945E-2,3.7171373E-3,4.9268954E-2,-2.1713095E-2,4.667598E-2,8.112199E-3,-6.259674E-2,1.0962729E-2,6.1363406E-2,1.4040859E-2,6.3189946E-2,4.050007E-2,3.7291825E-2,-5.557357E-3,-3.3399146E-2,4.443412E-2,6.1419196E-2,1.1428059E-2],"categories":[],"categories_nodes":[],"categories_segments":[],"categories_sizes":[],"default_left":[0,0,0,0,0,0,0,0,0,0,0,0,0,0,0,0,0,0,0,0,0,0,0,0,0,0,0,0,0,0,0,0,0,0,0,0,0,0,0,0,0,0,0,0,0,0,0,0,0,0,0,0,0,0,0,0,0,0,0,0,0,0,0,0,0,0,0,0,0,0,0,0,0],"id":17,"left_children":[1,3,5,7,9,11,13,15,17,19,-1,21,23,-1,25,27,29,31,33,35,37,39,41,43,-1,-1,45,-1,-1,47,49,51,53,55,-1,57,-1,-1,-1,59,61,63,-1,65,67,69,71,-1,-1,-1,-1,-1,-1,-1,-1,-1,-1,-1,-1,-1,-1,-1,-1,-1,-1,-1,-1,-1,-1,-1,-1,-1,-1],"loss_changes":[3.9074384E2,3.1507526E2,1.3484711E1,8.863144E1,1.1492676E1,4.5967987E1,7.261322E0,5.8550262E1,2.8603668E1,4.9398317E0,0E0,2.6340576E1,9.670044E0,0E0,8.486123E0,4.359123E0,1.0593783E2,1.4251282E1,1.567898E1,5.818551E0,2.5324097E0,1.178535E1,4.92704E0,9.008789E-1,0E0,0E0,2.3615189E0,0E0,0E0,7.839882E0,3.9046616E1,1.1688568E1,1.5118133E0,1.4658346E0,0E0,5.9885464E0,0E0,0E0,0E0,5.3415513E-1,1.6128872E1,4.3054886E0,0E0,5.270386E-1,7.1721673E-1,3.4603033E0,2.3908958E0,0E0,0E0,0E0,0E0,0E0,0E0,0E0,0E0,0E0,0E0,0E0,0E0,0E0,0E0,0E0,0E0,0E0,0E0,0E0,0E0,0E0,0E0,0E0,0E0,0E0,0E0],"parents":[2147483647,0,0,1,1,2,2,3,3,4,4,5,5,6,6,7,7,8,8,9,9,11,11,12,12,14,14,15,15,16,16,17,17,18,18,19,19,20,20,21,21,22,22,23,23,26,26,29,29,30,30,31,31,32,32,33,33,35,35,39,39,40,40,41,41,43,43,44,44,45,45,46,46],"right_children":[2,4,6,8,10,12,14,16,18,20,-1,22,24,-1,26,28,30,32,34,36,38,40,42,44,-1,-1,46,-1,-1,48,50,52,54,56,-1,58,-1,-1,-1,60,62,64,-1,66,68,70,72,-1,-1,-1,-1,-1,-1,-1,-1,-1,-1,-1,-1,-1,-1,-1,-1,-1,-1,-1,-1,-1,-1,-1,-1,-1,-1],"split_conditions":[1.1015813E0,8.272157E0,4.117768E2,6.4591937E0,8.413848E0,4.346406E2,2.396961E0,5.9E1,8.162834E-1,2.4752329E1,6.499162E-2,2.4033725E0,3.6E2,6.524392E-2,2.4033725E0,4.546101E1,6.798407E0,2.3263123E1,1.099194E1,9E0,9.491485E1,6.9E0,3.4115634E2,6.686364E0,-4.261052E-2,-4.5383725E-2,9.49535E1,-6.398841E-2,1.8337868E-2,5.9864907E0,3.7665477E-1,4.117768E2,2.6137775E-3,2.111817E0,-5.33815E-2,7.28237E0,-3.3297982E-2,-5.4555684E-2,2.018348E-2,2.1991894E0,3.0088177E2,7.495628E0,-3.980228E-2,4.6E-1,2.0130681E2,3.5950952E0,9.530907E1,-4.018703E-2,6.78849E-2,-3.4993485E-2,4.444555E-2,-6.2148716E-2,4.6080228E-2,5.092714E-2,-8.698259E-3,6.8986945E-2,3.7171373E-3,4.9268954E-2,-2.1713095E-2,4.667598E-2,8.112199E-3,-6.259674E-2,1.0962729E-2,6.1363406E-2,1.4040859E-2,6.3189946E-2,4.050007E-2,3.7291825E-2,-5.557357E-3,-3.3399146E-2,4.443412E-2,6.1419196E-2,1.1428059E-2],"split_indices":[12,53,31,4,53,61,12,28,19,59,0,12,31,0,12,31,53,57,39,4,1,53,61,12,0,0,1,0,0,53,4,31,44,6,0,56,0,0,0,12,31,53,0,42,28,20,1,0,0,0,0,0,0,0,0,0,0,0,0,0,0,0,0,0,0,0,0,0,0,0,0,0,0],"split_type":[0,0,0,0,0,0,0,0,0,0,0,0,0,0,0,0,0,0,0,0,0,0,0,0,0,0,0,0,0,0,0,0,0,0,0,0,0,0,0,0,0,0,0,0,0,0,0,0,0,0,0,0,0,0,0,0,0,0,0,0,0,0,0,0,0,0,0,0,0,0,0,0,0],"sum_hessian":[9.134879E2,6.2178217E2,2.9170572E2,5.130266E2,1.0875556E2,1.6159428E2,1.3011143E2,2.2326639E2,2.8976025E2,3.0928074E1,7.7827484E1,6.100189E1,1.005924E2,1.0909066E2,2.1020782E1,5.0542545E1,1.7272383E2,2.7866904E2,1.1091213E1,2.7920168E1,3.007906E0,3.628398E1,2.4717905E1,9.892801E1,1.6643924E0,2.3683436E0,1.865244E1,4.928818E1,1.2543639E0,4.4861996E1,1.2786184E2,2.7519275E2,3.4762778E0,7.2820673E0,3.8091457E0,2.5740107E1,2.1800613E0,1.7872114E0,1.2206947E0,5.6536026E0,3.0630379E1,2.3711632E1,1.0062747E0,9.6327934E1,2.6000686E0,3.7326424E0,1.4919797E1,1.1213021E0,4.3740692E1,1.1078539E2,1.7076447E1,2.733497E2,1.843071E0,2.2830558E0,1.1932218E0,6.170406E0,1.1116616E0,2.2921911E1,2.8181956E0,3.9600801E0,1.6935225E0,1.9256685E1,1.1373693E1,1.5997015E1,7.7146163E0,8.631759E1,1.0010348E1,1.2913165E0,1.308752E0,1.9638603E0,1.7687823E0,1.12933855E1,3.6264112E0],"tree_param":{"num_deleted":"0","num_feature":"88","num_nodes":"73","size_leaf_vector":"1"}},{"base_weights":[-3.4467469E-4,-7.1005166E-1,5.593199E-1,-8.6537206E-1,1.1282512E0,8.77742E-1,3.1874683E-2,-9.848895E-1,9.882727E-1,-9.57384E-3,1.195923E0,6.9247496E-1,1.2024252E0,-4.769239E-1,1.1889706E0,-1.0501568E0,6.6191643E-1,1.085086E0,-2.416647E-2,1.24722E0,8.810785E-4,2.8733802E-1,1.1311969E0,1.2483246E0,8.916451E-1,6.852993E-1,-7.184028E-1,1.2111905E0,1.2530672E-2,-6.900312E-1,-1.2369177E0,1.0189867E0,-4.5738228E-2,5.348638E-1,6.157223E-2,6.375671E-2,1.8882938E-2,6.385941E-2,1.1429757E0,1.2117307E0,-6.349981E-2,6.2905006E-2,1.0086461E-2,1.1349475E0,4.578279E-1,-4.8839506E-2,8.956838E-1,-9.787734E-1,2.866442E-1,1.2256337E0,1.3161339E-2,-4.6006933E-2,5.724032E-2,-6.297899E-2,4.649704E-2,6.587581E-2,1.8454613E-2,4.162716E-2,-1.3165883E-3,6.732517E-2,-3.4428274E-3,6.266583E-2,5.2990178E-3,6.1826468E-2,7.9022655E-3,6.0462203E-2,2.0113083E-2,3.4414053E-2,-2.0622961E-2,5.174402E-2,-4.213118E-2,-5.9174072E-2,-5.6987475E-3,3.5407197E-2,-6.450484E-2,1.5487303E-2,6.1981715E-2],"categories":[],"categories_nodes":[],"categories_segments":[],"categories_sizes":[],"default_left":[0,0,0,0,0,0,0,0,0,0,0,0,0,0,0,0,0,0,0,0,0,0,0,0,0,0,0,0,0,0,0,0,0,0,0,0,0,0,0,0,0,0,0,0,0,0,0,0,0,0,0,0,0,0,0,0,0,0,0,0,0,0,0,0,0,0,0,0,0,0,0,0,0,0,0,0,0],"id":18,"left_children":[1,3,5,7,9,11,13,15,17,-1,19,21,23,25,27,29,31,33,-1,35,-1,37,39,41,43,45,47,49,-1,51,53,55,-1,57,-1,-1,-1,59,61,63,-1,-1,-1,65,67,-1,69,71,73,75,-1,-1,-1,-1,-1,-1,-1,-1,-1,-1,-1,-1,-1,-1,-1,-1,-1,-1,-1,-1,-1,-1,-1,-1,-1,-1,-1],"loss_changes":[3.584886E2,1.1459587E2,8.4721985E1,8.238907E1,3.0365143E0,1.8092545E1,1.13012314E2,3.785562E1,3.7669163E0,0E0,1.7938004E0,3.569861E1,4.9801636E-1,3.7924637E1,9.1872406E-1,2.1539307E1,8.697647E0,1.0857925E0,0E0,2.1685028E-1,0E0,2.0331797E1,2.0289337E1,7.274475E-1,1.3838587E0,9.077112E0,2.930653E1,4.5785522E-1,0E0,5.001321E1,1.1875427E1,1.7874489E0,0E0,1.0775987E0,0E0,0E0,0E0,1.4676154E1,2.38904E0,2.2693481E0,0E0,0E0,0E0,1.05716705E-1,1.9196837E0,0E0,6.0362167E0,1.55011215E1,1.659548E1,3.3249664E-1,0E0,0E0,0E0,0E0,0E0,0E0,0E0,0E0,0E0,0E0,0E0,0E0,0E0,0E0,0E0,0E0,0E0,0E0,0E0,0E0,0E0,0E0,0E0,0E0,0E0,0E0,0E0],"parents":[2147483647,0,0,1,1,2,2,3,3,4,4,5,5,6,6,7,7,8,8,10,10,11,11,12,12,13,13,14,14,15,15,16,16,17,17,19,19,21,21,22,22,23,23,24,24,25,25,26,26,27,27,29,29,30,30,31,31,33,33,37,37,38,38,39,39,43,43,44,44,46,46,47,47,48,48,49,49],"right_children":[2,4,6,8,10,12,14,16,18,-1,20,22,24,26,28,30,32,34,-1,36,-1,38,40,42,44,46,48,50,-1,52,54,56,-1,58,-1,-1,-1,60,62,64,-1,-1,-1,66,68,-1,70,72,74,76,-1,-1,-1,-1,-1,-1,-1,-1,-1,-1,-1,-1,-1,-1,-1,-1,-1,-1,-1,-1,-1,-1,-1,-1,-1,-1,-1],"split_conditions":[9.488175E1,8.307954E0,2.8E1,4.546101E1,5.6354122E1,4.117768E2,8.307954E0,1.5393104E-1,2.4852557E-1,-9.57384E-3,5.04E-2,6.216971E2,9.530907E1,6.9E0,8.995565E0,6.4E0,2.0762386E0,4.117768E2,-2.416647E-2,2.61E1,8.810785E-4,1.2023567E0,3.6E2,1.8339503E3,7.203281E2,5.9864907E0,8.162834E-1,1.006E0,1.2530672E-2,3.7665477E-1,4.1581273E-1,3.9005995E0,-4.5738228E-2,7.495628E0,6.157223E-2,6.375671E-2,1.8882938E-2,9.490972E1,1.32E2,5.6E-1,-6.349981E-2,6.2905006E-2,1.0086461E-2,7.59E0,9.536639E1,-4.8839506E-2,4.6E0,2.6E1,1.2494434E1,-7.9E-1,1.3161339E-2,-4.6006933E-2,5.724032E-2,-6.297899E-2,4.649704E-2,6.587581E-2,1.8454613E-2,4.162716E-2,-1.3165883E-3,6.732517E-2,-3.4428274E-3,6.266583E-2,5.2990178E-3,6.1826468E-2,7.9022655E-3,6.0462203E-2,2.0113083E-2,3.4414053E-2,-2.0622961E-2,5.174402E-2,-4.213118E-2,-5.9174072E-2,-5.6987475E-3,3.5407197E-2,-6.450484E-2,1.5487303E-2,6.1981715E-2],"split_indices":[1,53,7,31,62,31,53,6,42,0,70,61,1,53,4,4,38,31,0,59,0,7,31,31,31,53,19,45,0,4,61,6,0,53,0,0,0,1,27,8,0,0,0,53,1,0,40,56,39,54,0,0,0,0,0,0,0,0,0,0,0,0,0,0,0,0,0,0,0,0,0,0,0,0,0,0,0],"split_type":[0,0,0,0,0,0,0,0,0,0,0,0,0,0,0,0,0,0,0,0,0,0,0,0,0,0,0,0,0,0,0,0,0,0,0,0,0,0,0,0,0,0,0,0,0,0,0,0,0,0,0,0,0,0,0,0,0,0,0,0,0,0,0,0,0,0,0,0,0,0,0,0,0,0,0,0,0],"sum_hessian":[9.0054425E2,3.9693054E2,5.036137E2,3.6649423E2,3.043628E1,3.1361697E2,1.8999675E2,3.447354E2,2.1758831E1,1.3953245E0,2.9040956E1,2.0167328E2,1.11943695E2,1.323761E2,5.762064E1,3.31942E2,1.2793443E1,2.0662167E1,1.096665E0,2.7773357E1,1.2675974E0,1.05710266E2,9.596301E1,9.490967E1,1.703403E1,2.2456486E1,1.0991962E2,5.6003735E1,1.6169032E0,1.1496088E2,2.169811E2,1.0719514E1,2.0739293E0,5.3192825E0,1.5342883E1,2.6457623E1,1.3157363E0,8.467037E1,2.1039888E1,9.332823E1,2.634784E0,9.383117E1,1.0784972E0,9.877907E0,7.156124E0,2.1138303E0,2.0342655E1,8.732347E1,2.259615E1,5.4874744E1,1.1289908E0,1.0259316E2,1.2367719E1,2.1514966E2,1.8314397E0,6.6414714E0,4.078042E0,3.159727E0,2.1595552E0,7.0818186E0,7.7588554E1,1.8827913E1,2.2119758E0,9.101272E1,2.3155162E0,8.3779335E0,1.4999734E0,5.823252E0,1.3328716E0,1.920913E1,1.1335261E0,7.031142E1,1.7012053E1,1.8264502E1,4.3316474E0,1.1743556E0,5.370039E1],"tree_param":{"num_deleted":"0","num_feature":"88","num_nodes":"77","size_leaf_vector":"1"}},{"base_weights":[1.0191328E-2,-6.812016E-1,5.605906E-1,-8.3380073E-1,1.1275175E0,7.647E-1,-1.401353E-1,-9.746726E-1,8.2709956E-1,4.8085073E-1,6.224161E-2,9.6041745E-1,-1.1368488E-2,-3.6316404E-1,6.0763627E-2,-5.5274785E-1,-6.2550254E-2,3.2421032E-1,6.102669E-2,9.4543403E-1,-4.0549543E-2,1.1416954E0,6.642154E-1,6.946928E-1,-1.101335E0,1.9592129E-1,-1.010125E0,-1.1511472E0,-1.7427985E-1,-4.843423E-1,9.7653633E-1,5.20877E-2,1.4185387E-2,8.079262E-1,1.256293E0,-5.921766E-1,9.5698637E-1,-3.8218714E-2,9.1630405E-1,-1.2158751E0,3.775389E-2,5.657567E-1,-6.519606E-1,3.5847563E-1,-1.1021786E0,-5.973805E-2,2.2337737E-2,8.162602E-2,-3.1093553E-2,3.3402275E-2,-5.4520506E-2,3.7500837E-3,5.7337474E-2,-1.1606577E-2,4.9524885E-2,6.7331515E-2,5.3876717E-2,-6.56104E-2,5.4929335E-2,4.983052E-2,-5.126996E-2,-3.2561116E-2,3.6928173E-2,5.6892682E-2,2.4312435E-2,-6.458216E-2,-1.8833099E-2,3.8733568E-2,6.0000917E-4,2.987594E-2,-5.5436928E-2,-2.2419034E-2,4.460628E-2,-5.9945088E-2,1.12930825E-2],"categories":[],"categories_nodes":[],"categories_segments":[],"categories_sizes":[],"default_left":[0,0,0,0,0,0,0,0,0,0,0,0,0,0,0,0,0,0,0,0,0,0,0,0,0,0,0,0,0,0,0,0,0,0,0,0,0,0,0,0,0,0,0,0,0,0,0,0,0,0,0,0,0,0,0,0,0,0,0,0,0,0,0,0,0,0,0,0,0,0,0,0,0,0,0],"id":19,"left_children":[1,3,5,7,9,11,13,15,17,19,-1,21,23,25,-1,27,-1,29,-1,31,-1,33,35,37,39,41,43,45,47,49,51,-1,-1,53,55,57,59,61,63,65,-1,67,69,71,73,-1,-1,-1,-1,-1,-1,-1,-1,-1,-1,-1,-1,-1,-1,-1,-1,-1,-1,-1,-1,-1,-1,-1,-1,-1,-1,-1,-1,-1,-1],"loss_changes":[3.334423E2,1.08135864E2,6.9881546E1,8.4740845E1,1.726078E0,5.7418747E1,3.396347E1,3.791736E1,5.2606773E0,4.5686755E0,0E0,1.5449341E1,6.0106556E1,3.4919296E1,0E0,2.9884647E1,0E0,7.8099327E0,0E0,3.084135E-2,0E0,6.093933E0,4.359944E1,7.7351913E0,7.445942E0,1.6778751E1,6.0218163E0,4.108078E0,6.777653E1,5.533549E0,1.1463103E0,0E0,0E0,9.782146E0,7.541199E-1,2.9109636E1,8.504761E0,6.1792006E0,2.9188385E0,1.3764801E0,0E0,4.2680416E0,9.998721E0,1.9368639E0,5.6776924E0,0E0,0E0,0E0,0E0,0E0,0E0,0E0,0E0,0E0,0E0,0E0,0E0,0E0,0E0,0E0,0E0,0E0,0E0,0E0,0E0,0E0,0E0,0E0,0E0,0E0,0E0,0E0,0E0,0E0,0E0],"parents":[2147483647,0,0,1,1,2,2,3,3,4,4,5,5,6,6,7,7,8,8,9,9,11,11,12,12,13,13,15,15,17,17,19,19,21,21,22,22,23,23,24,24,25,25,26,26,27,27,28,28,29,29,30,30,33,33,34,34,35,35,36,36,37,37,38,38,39,39,41,41,42,42,43,43,44,44],"right_children":[2,4,6,8,10,12,14,16,18,20,-1,22,24,26,-1,28,-1,30,-1,32,-1,34,36,38,40,42,44,46,48,50,52,-1,-1,54,56,58,60,62,64,66,-1,68,70,72,74,-1,-1,-1,-1,-1,-1,-1,-1,-1,-1,-1,-1,-1,-1,-1,-1,-1,-1,-1,-1,-1,-1,-1,-1,-1,-1,-1,-1,-1,-1],"split_conditions":[9.488175E1,8.307954E0,9.533139E1,2.7393677E1,8.413848E0,2.7488611E1,8.413848E0,6.9E0,9.4776665E1,8.395475E0,6.224161E-2,9.5187225E1,2.7E1,2E0,6.0763627E-2,9E1,-6.2550254E-2,4.117768E2,6.102669E-2,8.6325E1,-4.0549543E-2,3.5487347E1,9.518726E1,4.546101E1,8.413848E0,5.98E1,6.629388E0,3.407E1,6.629388E0,7.3942986E0,7.4139256E0,5.20877E-2,1.4185387E-2,9.491493E1,2.1E-1,8.305126E0,5.6E-1,6.04E1,7.5E0,8.272157E0,3.775389E-2,7.572149E0,6.5961E0,6.5E0,8.257058E0,-5.973805E-2,2.2337737E-2,8.162602E-2,-3.1093553E-2,3.3402275E-2,-5.4520506E-2,3.7500837E-3,5.7337474E-2,-1.1606577E-2,4.9524885E-2,6.7331515E-2,5.3876717E-2,-6.56104E-2,5.4929335E-2,4.983052E-2,-5.126996E-2,-3.2561116E-2,3.6928173E-2,5.6892682E-2,2.4312435E-2,-6.458216E-2,-1.8833099E-2,3.8733568E-2,6.0000917E-4,2.987594E-2,-5.5436928E-2,-2.2419034E-2,4.460628E-2,-5.9945088E-2,1.12930825E-2],"split_indices":[1,53,1,0,53,0,53,52,1,52,0,1,62,40,0,28,0,31,0,35,0,28,1,31,53,35,53,33,53,53,4,0,0,1,42,52,8,35,53,53,0,53,53,53,52,0,0,0,0,0,0,0,0,0,0,0,0,0,0,0,0,0,0,0,0,0,0,0,0,0,0,0,0,0,0],"split_type":[0,0,0,0,0,0,0,0,0,0,0,0,0,0,0,0,0,0,0,0,0,0,0,0,0,0,0,0,0,0,0,0,0,0,0,0,0,0,0,0,0,0,0,0,0,0,0,0,0,0,0,0,0,0,0,0,0,0,0,0,0,0,0,0,0,0,0,0,0,0,0,0,0,0,0],"sum_hessian":[8.7422595E2,3.8737766E2,4.8684833E2,3.5773505E2,2.9642605E1,3.7695618E2,1.0989213E2,3.3014633E2,2.7588715E1,5.3347874E0,2.4307817E1,3.008476E2,7.610859E1,9.499329E1,1.4898829E1,1.3184145E2,1.983049E2,1.2910504E1,1.4678209E1,4.120932E0,1.2138554E0,1.8485841E2,1.1598919E2,4.6408573E1,2.9700014E1,5.133136E1,4.3661938E1,5.0288387E1,8.1553055E1,5.8799143E0,7.03059E0,3.095987E0,1.0249449E0,4.930532E1,1.355531E2,2.1727125E1,